<?xml version="1.0"?>
<MethodSetup Method="BDT::BDTG">
  <GeneralInfo>
    <Info name="TMVA Release" value="4.2.0 [262656]"/>
    <Info name="ROOT Release" value="5.32/00 [335872]"/>
    <Info name="Creator" value="smoortga"/>
    <Info name="Date" value="Sun Jul 12 18:19:54 2015"/>
    <Info name="Host" value="Linux cmsdev02.cern.ch 2.6.32-431.11.2.el6.x86_64 #1 SMP Wed Mar 26 09:39:43 CET 2014 x86_64 x86_64 x86_64 GNU/Linux"/>
    <Info name="Dir" value="/user_mnt/user/smoortga/CTag/TMVActag_v1/CTaggingCvsB/FullCTaggerSL_CvsB_FloatVariables"/>
    <Info name="Training events" value="2083460"/>
    <Info name="TrainingTime" value="9.67504335e+03"/>
    <Info name="AnalysisType" value="Classification"/>
  </GeneralInfo>
  <Options>
    <Option name="V" modified="Yes">False</Option>
    <Option name="VerbosityLevel" modified="No">Default</Option>
    <Option name="VarTransform" modified="No">None</Option>
    <Option name="H" modified="Yes">False</Option>
    <Option name="CreateMVAPdfs" modified="No">False</Option>
    <Option name="IgnoreNegWeightsInTraining" modified="No">False</Option>
    <Option name="NTrees" modified="Yes">1000</Option>
    <Option name="MaxDepth" modified="Yes">2</Option>
    <Option name="MinNodeSize" modified="Yes">1.5%</Option>
    <Option name="nCuts" modified="Yes">80</Option>
    <Option name="BoostType" modified="Yes">Grad</Option>
    <Option name="AdaBoostR2Loss" modified="No">quadratic</Option>
    <Option name="UseBaggedBoost" modified="No">True</Option>
    <Option name="Shrinkage" modified="Yes">1.000000e-01</Option>
    <Option name="AdaBoostBeta" modified="No">5.000000e-01</Option>
    <Option name="UseRandomisedTrees" modified="No">False</Option>
    <Option name="UseNvars" modified="No">9</Option>
    <Option name="UsePoissonNvars" modified="No">True</Option>
    <Option name="BaggedSampleFraction" modified="No">5.000000e-01</Option>
    <Option name="UseYesNoLeaf" modified="No">True</Option>
    <Option name="NegWeightTreatment" modified="No">ignorenegweightsintraining</Option>
    <Option name="Css" modified="No">1.000000e+00</Option>
    <Option name="Cts_sb" modified="No">1.000000e+00</Option>
    <Option name="Ctb_ss" modified="No">1.000000e+00</Option>
    <Option name="Cbb" modified="No">1.000000e+00</Option>
    <Option name="NodePurityLimit" modified="No">5.000000e-01</Option>
    <Option name="SeparationType" modified="No">giniindex</Option>
    <Option name="DoBoostMonitor" modified="No">False</Option>
    <Option name="UseFisherCuts" modified="No">False</Option>
    <Option name="MinLinCorrForFisher" modified="No">8.000000e-01</Option>
    <Option name="UseExclusiveVars" modified="No">False</Option>
    <Option name="DoPreselection" modified="No">False</Option>
    <Option name="SigToBkgFraction" modified="No">1.000000e+00</Option>
    <Option name="PruneMethod" modified="No">nopruning</Option>
    <Option name="PruneStrength" modified="No">0.000000e+00</Option>
    <Option name="PruningValFraction" modified="No">5.000000e-01</Option>
    <Option name="nEventsMin" modified="No">0</Option>
    <Option name="UseBaggedGrad" modified="Yes">True</Option>
    <Option name="GradBaggingFraction" modified="Yes">5.000000e-01</Option>
    <Option name="UseNTrainEvents" modified="No">0</Option>
    <Option name="NNodesMax" modified="No">0</Option>
  </Options>
  <Variables NVar="75">
    <Variable VarIndex="0" Expression="jetPt" Label="jetPt" Title="jetPt" Unit="" Internal="jetPt" Type="F" Min="1.50000753e+01" Max="7.08416846e+03"/>
    <Variable VarIndex="1" Expression="jetEta" Label="jetEta" Title="jetEta" Unit="" Internal="jetEta" Type="F" Min="-2.39999986e+00" Max="2.39999986e+00"/>
    <Variable VarIndex="2" Expression="trackSip2dSig_0" Label="trackSip2dSig_0" Title="trackSip2dSig_0" Unit="" Internal="trackSip2dSig_0" Type="F" Min="-8.63688736e+01" Max="1.66634705e+02"/>
    <Variable VarIndex="3" Expression="trackSip2dSig_1" Label="trackSip2dSig_1" Title="trackSip2dSig_1" Unit="" Internal="trackSip2dSig_1" Type="F" Min="-8.79549408e+01" Max="1.25064156e+02"/>
    <Variable VarIndex="4" Expression="trackSip2dSig_2" Label="trackSip2dSig_2" Title="trackSip2dSig_2" Unit="" Internal="trackSip2dSig_2" Type="F" Min="-1.10494484e+02" Max="8.34910507e+01"/>
    <Variable VarIndex="5" Expression="trackSip3dSig_0" Label="trackSip3dSig_0" Title="trackSip3dSig_0" Unit="" Internal="trackSip3dSig_0" Type="F" Min="-3.30911102e+02" Max="2.88687805e+02"/>
    <Variable VarIndex="6" Expression="trackSip3dSig_1" Label="trackSip3dSig_1" Title="trackSip3dSig_1" Unit="" Internal="trackSip3dSig_1" Type="F" Min="-2.59716156e+02" Max="2.85930145e+02"/>
    <Variable VarIndex="7" Expression="trackSip3dSig_2" Label="trackSip3dSig_2" Title="trackSip3dSig_2" Unit="" Internal="trackSip3dSig_2" Type="F" Min="-3.21987305e+02" Max="2.81502228e+02"/>
    <Variable VarIndex="8" Expression="trackSip2dVal_0" Label="trackSip2dVal_0" Title="trackSip2dVal_0" Unit="" Internal="trackSip2dVal_0" Type="F" Min="-1.94505170e-01" Max="1.99989498e-01"/>
    <Variable VarIndex="9" Expression="trackSip2dVal_1" Label="trackSip2dVal_1" Title="trackSip2dVal_1" Unit="" Internal="trackSip2dVal_1" Type="F" Min="-1.98689282e-01" Max="1.99994847e-01"/>
    <Variable VarIndex="10" Expression="trackSip2dVal_2" Label="trackSip2dVal_2" Title="trackSip2dVal_2" Unit="" Internal="trackSip2dVal_2" Type="F" Min="-1.99173763e-01" Max="1.99995294e-01"/>
    <Variable VarIndex="11" Expression="trackSip3dVal_0" Label="trackSip3dVal_0" Title="trackSip3dVal_0" Unit="" Internal="trackSip3dVal_0" Type="F" Min="-1.34539509e+00" Max="1.36103189e+00"/>
    <Variable VarIndex="12" Expression="trackSip3dVal_1" Label="trackSip3dVal_1" Title="trackSip3dVal_1" Unit="" Internal="trackSip3dVal_1" Type="F" Min="-1.33603394e+00" Max="1.39120746e+00"/>
    <Variable VarIndex="13" Expression="trackSip3dVal_2" Label="trackSip3dVal_2" Title="trackSip3dVal_2" Unit="" Internal="trackSip3dVal_2" Type="F" Min="-1.37268531e+00" Max="1.26414192e+00"/>
    <Variable VarIndex="14" Expression="trackPtRel_0" Label="trackPtRel_0" Title="trackPtRel_0" Unit="" Internal="trackPtRel_0" Type="F" Min="1.30333356e-04" Max="9.77534851e+02"/>
    <Variable VarIndex="15" Expression="trackPtRel_1" Label="trackPtRel_1" Title="trackPtRel_1" Unit="" Internal="trackPtRel_1" Type="F" Min="3.99929821e-04" Max="7.93604309e+02"/>
    <Variable VarIndex="16" Expression="trackPtRel_2" Label="trackPtRel_2" Title="trackPtRel_2" Unit="" Internal="trackPtRel_2" Type="F" Min="0.00000000e+00" Max="9.10143677e+02"/>
    <Variable VarIndex="17" Expression="trackPPar_0" Label="trackPPar_0" Title="trackPPar_0" Unit="" Internal="trackPPar_0" Type="F" Min="9.58855331e-01" Max="2.04645750e+05"/>
    <Variable VarIndex="18" Expression="trackPPar_1" Label="trackPPar_1" Title="trackPPar_1" Unit="" Internal="trackPPar_1" Type="F" Min="9.59636986e-01" Max="1.22163305e+05"/>
    <Variable VarIndex="19" Expression="trackPPar_2" Label="trackPPar_2" Title="trackPPar_2" Unit="" Internal="trackPPar_2" Type="F" Min="0.00000000e+00" Max="1.20257711e+05"/>
    <Variable VarIndex="20" Expression="trackEtaRel_0" Label="trackEtaRel_0" Title="trackEtaRel_0" Unit="" Internal="trackEtaRel_0" Type="F" Min="-4.69040298e+00" Max="9.23019600e+00"/>
    <Variable VarIndex="21" Expression="trackEtaRel_1" Label="trackEtaRel_1" Title="trackEtaRel_1" Unit="" Internal="trackEtaRel_1" Type="F" Min="-5.12812090e+00" Max="9.16352844e+00"/>
    <Variable VarIndex="22" Expression="trackEtaRel_2" Label="trackEtaRel_2" Title="trackEtaRel_2" Unit="" Internal="trackEtaRel_2" Type="F" Min="-4.02623320e+00" Max="9.00605392e+00"/>
    <Variable VarIndex="23" Expression="trackDeltaR_0" Label="trackDeltaR_0" Title="trackDeltaR_0" Unit="" Internal="trackDeltaR_0" Type="F" Min="3.51017334e-05" Max="2.99999177e-01"/>
    <Variable VarIndex="24" Expression="trackDeltaR_1" Label="trackDeltaR_1" Title="trackDeltaR_1" Unit="" Internal="trackDeltaR_1" Type="F" Min="6.27587724e-05" Max="2.99999326e-01"/>
    <Variable VarIndex="25" Expression="trackDeltaR_2" Label="trackDeltaR_2" Title="trackDeltaR_2" Unit="" Internal="trackDeltaR_2" Type="F" Min="0.00000000e+00" Max="2.99999893e-01"/>
    <Variable VarIndex="26" Expression="trackPtRatio_0" Label="trackPtRatio_0" Title="trackPtRatio_0" Unit="" Internal="trackPtRatio_0" Type="F" Min="2.37198510e-05" Max="2.95477241e-01"/>
    <Variable VarIndex="27" Expression="trackPtRatio_1" Label="trackPtRatio_1" Title="trackPtRatio_1" Unit="" Internal="trackPtRatio_1" Type="F" Min="5.38516651e-05" Max="2.95178980e-01"/>
    <Variable VarIndex="28" Expression="trackPtRatio_2" Label="trackPtRatio_2" Title="trackPtRatio_2" Unit="" Internal="trackPtRatio_2" Type="F" Min="0.00000000e+00" Max="2.95336425e-01"/>
    <Variable VarIndex="29" Expression="trackPParRatio_0" Label="trackPParRatio_0" Title="trackPParRatio_0" Unit="" Internal="trackPParRatio_0" Type="F" Min="9.55349803e-01" Max="1.00000000e+00"/>
    <Variable VarIndex="30" Expression="trackPParRatio_1" Label="trackPParRatio_1" Title="trackPParRatio_1" Unit="" Internal="trackPParRatio_1" Type="F" Min="9.55441952e-01" Max="1.00000000e+00"/>
    <Variable VarIndex="31" Expression="trackPParRatio_2" Label="trackPParRatio_2" Title="trackPParRatio_2" Unit="" Internal="trackPParRatio_2" Type="F" Min="0.00000000e+00" Max="1.00000000e+00"/>
    <Variable VarIndex="32" Expression="trackJetDist_0" Label="trackJetDist_0" Title="trackJetDist_0" Unit="" Internal="trackJetDist_0" Type="F" Min="-6.99999705e-02" Max="-1.86264515e-09"/>
    <Variable VarIndex="33" Expression="trackJetDist_1" Label="trackJetDist_1" Title="trackJetDist_1" Unit="" Internal="trackJetDist_1" Type="F" Min="-6.99995980e-02" Max="-1.25146471e-09"/>
    <Variable VarIndex="34" Expression="trackJetDist_2" Label="trackJetDist_2" Title="trackJetDist_2" Unit="" Internal="trackJetDist_2" Type="F" Min="-6.99973181e-02" Max="0.00000000e+00"/>
    <Variable VarIndex="35" Expression="trackDecayLenVal_0" Label="trackDecayLenVal_0" Title="trackDecayLenVal_0" Unit="" Internal="trackDecayLenVal_0" Type="F" Min="7.75061417e-05" Max="4.99999237e+00"/>
    <Variable VarIndex="36" Expression="trackDecayLenVal_1" Label="trackDecayLenVal_1" Title="trackDecayLenVal_1" Unit="" Internal="trackDecayLenVal_1" Type="F" Min="3.88911212e-05" Max="4.99993706e+00"/>
    <Variable VarIndex="37" Expression="trackDecayLenVal_2" Label="trackDecayLenVal_2" Title="trackDecayLenVal_2" Unit="" Internal="trackDecayLenVal_2" Type="F" Min="0.00000000e+00" Max="4.99969721e+00"/>
    <Variable VarIndex="38" Expression="vertexMass_0" Label="vertexMass_0" Title="vertexMass_0" Unit="" Internal="vertexMass_0" Type="F" Min="-1.00000001e-01" Max="1.26210449e+03"/>
    <Variable VarIndex="39" Expression="vertexEnergyRatio_0" Label="vertexEnergyRatio_0" Title="vertexEnergyRatio_0" Unit="" Internal="vertexEnergyRatio_0" Type="F" Min="-1.00000000e+01" Max="8.20220032e+02"/>
    <Variable VarIndex="40" Expression="trackSip2dSigAboveCharm_0" Label="trackSip2dSigAboveCharm_0" Title="trackSip2dSigAboveCharm_0" Unit="" Internal="trackSip2dSigAboveCharm_0" Type="F" Min="-9.40320511e+01" Max="1.25064156e+02"/>
    <Variable VarIndex="41" Expression="trackSip3dSigAboveCharm_0" Label="trackSip3dSigAboveCharm_0" Title="trackSip3dSigAboveCharm_0" Unit="" Internal="trackSip3dSigAboveCharm_0" Type="F" Min="-3.82185333e+02" Max="1.49486145e+02"/>
    <Variable VarIndex="42" Expression="flightDistance2dSig_0" Label="flightDistance2dSig_0" Title="flightDistance2dSig_0" Unit="" Internal="flightDistance2dSig_0" Type="F" Min="-1.00000000e+00" Max="4.50812073e+02"/>
    <Variable VarIndex="43" Expression="flightDistance3dSig_0" Label="flightDistance3dSig_0" Title="flightDistance3dSig_0" Unit="" Internal="flightDistance3dSig_0" Type="F" Min="-1.00000000e+00" Max="4.49249725e+02"/>
    <Variable VarIndex="44" Expression="flightDistance2dVal_0" Label="flightDistance2dVal_0" Title="flightDistance2dVal_0" Unit="" Internal="flightDistance2dVal_0" Type="F" Min="-1.00000001e-01" Max="2.49998116e+00"/>
    <Variable VarIndex="45" Expression="flightDistance3dVal_0" Label="flightDistance3dVal_0" Title="flightDistance3dVal_0" Unit="" Internal="flightDistance3dVal_0" Type="F" Min="-1.00000001e-01" Max="1.65764256e+01"/>
    <Variable VarIndex="46" Expression="trackSumJetEtRatio" Label="trackSumJetEtRatio" Title="trackSumJetEtRatio" Unit="" Internal="trackSumJetEtRatio" Type="F" Min="0.00000000e+00" Max="1.48432297e+02"/>
    <Variable VarIndex="47" Expression="vertexJetDeltaR_0" Label="vertexJetDeltaR_0" Title="vertexJetDeltaR_0" Unit="" Internal="vertexJetDeltaR_0" Type="F" Min="-1.00000001e-01" Max="2.99997628e-01"/>
    <Variable VarIndex="48" Expression="trackSumJetDeltaR" Label="trackSumJetDeltaR" Title="trackSumJetDeltaR" Unit="" Internal="trackSumJetDeltaR" Type="F" Min="1.25770111e-05" Max="3.95103455e+00"/>
    <Variable VarIndex="49" Expression="trackSip2dValAboveCharm_0" Label="trackSip2dValAboveCharm_0" Title="trackSip2dValAboveCharm_0" Unit="" Internal="trackSip2dValAboveCharm_0" Type="F" Min="-1.00000000e+00" Max="1.99999869e-01"/>
    <Variable VarIndex="50" Expression="trackSip3dValAboveCharm_0" Label="trackSip3dValAboveCharm_0" Title="trackSip3dValAboveCharm_0" Unit="" Internal="trackSip3dValAboveCharm_0" Type="F" Min="-2.31781173e+00" Max="9.73313570e-01"/>
    <Variable VarIndex="51" Expression="vertexFitProb_0" Label="vertexFitProb_0" Title="vertexFitProb_0" Unit="" Internal="vertexFitProb_0" Type="F" Min="-4.50394406e+05" Max="3.79940430e+04"/>
    <Variable VarIndex="52" Expression="massVertexEnergyFraction_0" Label="massVertexEnergyFraction_0" Title="massVertexEnergyFraction_0" Unit="" Internal="massVertexEnergyFraction_0" Type="F" Min="-1.00000001e-01" Max="1.66628943e+03"/>
    <Variable VarIndex="53" Expression="vertexBoostOverSqrtJetPt_0" Label="vertexBoostOverSqrtJetPt_0" Title="vertexBoostOverSqrtJetPt_0" Unit="" Internal="vertexBoostOverSqrtJetPt_0" Type="F" Min="-1.00000001e-01" Max="9.99883771e-01"/>
    <Variable VarIndex="54" Expression="leptonPtRel_0" Label="leptonPtRel_0" Title="leptonPtRel_0" Unit="" Internal="leptonPtRel_0" Type="F" Min="-1.00000000e+00" Max="1.42148132e+02"/>
    <Variable VarIndex="55" Expression="leptonPtRel_1" Label="leptonPtRel_1" Title="leptonPtRel_1" Unit="" Internal="leptonPtRel_1" Type="F" Min="-1.00000000e+00" Max="7.40928345e+01"/>
    <Variable VarIndex="56" Expression="leptonPtRel_2" Label="leptonPtRel_2" Title="leptonPtRel_2" Unit="" Internal="leptonPtRel_2" Type="F" Min="-1.00000000e+00" Max="2.39926376e+01"/>
    <Variable VarIndex="57" Expression="leptonSip3d_0" Label="leptonSip3d_0" Title="leptonSip3d_0" Unit="" Internal="leptonSip3d_0" Type="F" Min="-2.03366816e+04" Max="1.73459199e+04"/>
    <Variable VarIndex="58" Expression="leptonSip3d_1" Label="leptonSip3d_1" Title="leptonSip3d_1" Unit="" Internal="leptonSip3d_1" Type="F" Min="-1.18171387e+04" Max="1.28596631e+04"/>
    <Variable VarIndex="59" Expression="leptonSip3d_2" Label="leptonSip3d_2" Title="leptonSip3d_2" Unit="" Internal="leptonSip3d_2" Type="F" Min="-1.00000000e+04" Max="5.79077100e+03"/>
    <Variable VarIndex="60" Expression="leptonDeltaR_0" Label="leptonDeltaR_0" Title="leptonDeltaR_0" Unit="" Internal="leptonDeltaR_0" Type="F" Min="-1.00000000e+00" Max="8.73945594e-01"/>
    <Variable VarIndex="61" Expression="leptonDeltaR_1" Label="leptonDeltaR_1" Title="leptonDeltaR_1" Unit="" Internal="leptonDeltaR_1" Type="F" Min="-1.00000000e+00" Max="1.14989007e+00"/>
    <Variable VarIndex="62" Expression="leptonDeltaR_2" Label="leptonDeltaR_2" Title="leptonDeltaR_2" Unit="" Internal="leptonDeltaR_2" Type="F" Min="-1.00000000e+00" Max="5.03484190e-01"/>
    <Variable VarIndex="63" Expression="leptonRatioRel_0" Label="leptonRatioRel_0" Title="leptonRatioRel_0" Unit="" Internal="leptonRatioRel_0" Type="F" Min="-1.00000000e+00" Max="2.72078086e-02"/>
    <Variable VarIndex="64" Expression="leptonRatioRel_1" Label="leptonRatioRel_1" Title="leptonRatioRel_1" Unit="" Internal="leptonRatioRel_1" Type="F" Min="-1.00000000e+00" Max="2.02855244e-02"/>
    <Variable VarIndex="65" Expression="leptonRatioRel_2" Label="leptonRatioRel_2" Title="leptonRatioRel_2" Unit="" Internal="leptonRatioRel_2" Type="F" Min="-1.00000000e+00" Max="1.08837644e-02"/>
    <Variable VarIndex="66" Expression="leptonEtaRel_0" Label="leptonEtaRel_0" Title="leptonEtaRel_0" Unit="" Internal="leptonEtaRel_0" Type="F" Min="-1.00000000e+00" Max="5.94429553e-01"/>
    <Variable VarIndex="67" Expression="leptonEtaRel_1" Label="leptonEtaRel_1" Title="leptonEtaRel_1" Unit="" Internal="leptonEtaRel_1" Type="F" Min="-1.00000000e+00" Max="5.82921743e-01"/>
    <Variable VarIndex="68" Expression="leptonEtaRel_2" Label="leptonEtaRel_2" Title="leptonEtaRel_2" Unit="" Internal="leptonEtaRel_2" Type="F" Min="-1.00000000e+00" Max="1.30882770e-01"/>
    <Variable VarIndex="69" Expression="leptonRatio_0" Label="leptonRatio_0" Title="leptonRatio_0" Unit="" Internal="leptonRatio_0" Type="F" Min="-1.00000000e+00" Max="9.92916882e-01"/>
    <Variable VarIndex="70" Expression="leptonRatio_1" Label="leptonRatio_1" Title="leptonRatio_1" Unit="" Internal="leptonRatio_1" Type="F" Min="-1.00000000e+00" Max="4.63994384e-01"/>
    <Variable VarIndex="71" Expression="leptonRatio_2" Label="leptonRatio_2" Title="leptonRatio_2" Unit="" Internal="leptonRatio_2" Type="F" Min="-1.00000000e+00" Max="2.68734872e-01"/>
    <Variable VarIndex="72" Expression="vertexNTracks_0" Label="vertexNTracks_0" Title="vertexNTracks_0" Unit="" Internal="vertexNTracks_0" Type="F" Min="0.00000000e+00" Max="3.90000000e+01"/>
    <Variable VarIndex="73" Expression="jetNSecondaryVertices" Label="jetNSecondaryVertices" Title="jetNSecondaryVertices" Unit="" Internal="jetNSecondaryVertices" Type="F" Min="0.00000000e+00" Max="9.00000000e+00"/>
    <Variable VarIndex="74" Expression="jetNTracks" Label="jetNTracks" Title="jetNTracks" Unit="" Internal="jetNTracks" Type="F" Min="2.00000000e+00" Max="8.40000000e+01"/>
  </Variables>
  <Spectators NSpec="0"/>
  <Classes NClass="2">
    <Class Name="Signal" Index="0"/>
    <Class Name="Background" Index="1"/>
  </Classes>
  <Transformations NTransformations="0"/>
  <MVAPdfs/>
  <Weights NTrees="1000" AnalysisType="1">
    <BinaryTree type="DecisionTree" boostWeight="1.0000000000000000e+00" itree="0">
      <Node pos="s" depth="0" NCoef="0" IVar="41" Cut="4.4906549453735352e+00" cType="1" res="1.7719973402563483e-04" rms="4.9999997019767761e-01" purity="5.0017720460891724e-01" nType="0">
        <Node pos="l" depth="1" NCoef="0" IVar="42" Cut="4.5779266357421875e+00" cType="1" res="7.4401289224624634e-02" rms="4.9443346261978149e-01" purity="5.7440125942230225e-01" nType="0">
          <Node pos="l" depth="2" NCoef="0" IVar="-1" Cut="0.0000000000000000e+00" cType="1" res="1.8267316045239568e-03" rms="4.8196527361869812e-01" purity="6.3307696580886841e-01" nType="-99"/>
          <Node pos="r" depth="2" NCoef="0" IVar="-1" Cut="0.0000000000000000e+00" cType="1" res="-1.4889127342030406e-03" rms="4.9239540100097656e-01" purity="4.1312783956527710e-01" nType="-99"/>
        </Node>
        <Node pos="r" depth="1" NCoef="0" IVar="42" Cut="7.7505159378051758e+00" cType="1" res="-2.7143833041191101e-01" rms="4.1990622878074646e-01" purity="2.2856168448925018e-01" nType="0">
          <Node pos="l" depth="2" NCoef="0" IVar="-1" Cut="0.0000000000000000e+00" cType="1" res="-1.9603380933403969e-03" rms="4.7616553306579590e-01" purity="3.4746679663658142e-01" nType="-99"/>
          <Node pos="r" depth="2" NCoef="0" IVar="-1" Cut="0.0000000000000000e+00" cType="1" res="-7.2964336723089218e-03" rms="3.3694216609001160e-01" purity="1.3058157265186310e-01" nType="-99"/>
        </Node>
      </Node>
    </BinaryTree>
    <BinaryTree type="DecisionTree" boostWeight="1.0000000000000000e+00" itree="1">
      <Node pos="s" depth="0" NCoef="0" IVar="41" Cut="4.4906549453735352e+00" cType="1" res="-3.0962802702561021e-04" rms="4.9949297308921814e-01" purity="4.9954575300216675e-01" nType="0">
        <Node pos="l" depth="1" NCoef="0" IVar="43" Cut="4.1231536865234375e+00" cType="1" res="7.3519267141819000e-02" rms="4.9435347318649292e-01" purity="5.7398974895477295e-01" nType="0">
          <Node pos="l" depth="2" NCoef="0" IVar="-1" Cut="0.0000000000000000e+00" cType="1" res="1.8188797403126955e-03" rms="4.8176103830337524e-01" purity="6.3381403684616089e-01" nType="-99"/>
          <Node pos="r" depth="2" NCoef="0" IVar="-1" Cut="0.0000000000000000e+00" cType="1" res="-1.2988483067601919e-03" rms="4.9438518285751343e-01" purity="4.2549169063568115e-01" nType="-99"/>
        </Node>
        <Node pos="r" depth="1" NCoef="0" IVar="42" Cut="7.7505159378051758e+00" cType="1" res="-2.7370834350585938e-01" rms="4.1650548577308655e-01" purity="2.2386935353279114e-01" nType="0">
          <Node pos="l" depth="2" NCoef="0" IVar="-1" Cut="0.0000000000000000e+00" cType="1" res="-1.9483873620629311e-03" rms="4.7260680794715881e-01" purity="3.3677381277084351e-01" nType="-99"/>
          <Node pos="r" depth="2" NCoef="0" IVar="-1" Cut="0.0000000000000000e+00" cType="1" res="-7.2248303331434727e-03" rms="3.3398005366325378e-01" purity="1.2790144979953766e-01" nType="-99"/>
        </Node>
      </Node>
    </BinaryTree>
    <BinaryTree type="DecisionTree" boostWeight="1.0000000000000000e+00" itree="2">
      <Node pos="s" depth="0" NCoef="0" IVar="43" Cut="4.5586385726928711e+00" cType="1" res="1.5535737620666623e-03" rms="4.9899959564208984e-01" purity="5.0126731395721436e-01" nType="0">
        <Node pos="l" depth="1" NCoef="0" IVar="2" Cut="1.0891311645507812e+01" cType="1" res="1.0072590410709381e-01" rms="4.8925736546516418e-01" purity="6.0208547115325928e-01" nType="0">
          <Node pos="l" depth="2" NCoef="0" IVar="-1" Cut="0.0000000000000000e+00" cType="1" res="1.7263017361983657e-03" rms="4.8136976361274719e-01" purity="6.3472491502761841e-01" nType="-99"/>
          <Node pos="r" depth="2" NCoef="0" IVar="-1" Cut="0.0000000000000000e+00" cType="1" res="-2.6425193063914776e-03" rms="4.8047816753387451e-01" purity="3.6264193058013916e-01" nType="-99"/>
        </Node>
        <Node pos="r" depth="1" NCoef="0" IVar="41" Cut="6.5325956344604492e+00" cType="1" res="-1.8428508937358856e-01" rms="4.6268361806869507e-01" purity="3.1234443187713623e-01" nType="0">
          <Node pos="l" depth="2" NCoef="0" IVar="-1" Cut="0.0000000000000000e+00" cType="1" res="-1.8956353887915611e-03" rms="4.8856753110885620e-01" purity="3.9478981494903564e-01" nType="-99"/>
          <Node pos="r" depth="2" NCoef="0" IVar="-1" Cut="0.0000000000000000e+00" cType="1" res="-6.7713586613535881e-03" rms="3.2139858603477478e-01" purity="1.1710967123508453e-01" nType="-99"/>
        </Node>
      </Node>
    </BinaryTree>
    <BinaryTree type="DecisionTree" boostWeight="1.0000000000000000e+00" itree="3">
      <Node pos="s" depth="0" NCoef="0" IVar="43" Cut="9.2463073730468750e+00" cType="1" res="3.9484566077589989e-03" rms="4.9851247668266296e-01" purity="5.0345677137374878e-01" nType="0">
        <Node pos="l" depth="1" NCoef="0" IVar="2" Cut="7.2841629981994629e+00" cType="1" res="7.9240456223487854e-02" rms="4.9291875958442688e-01" purity="5.8036714792251587e-01" nType="0">
          <Node pos="l" depth="2" NCoef="0" IVar="-1" Cut="0.0000000000000000e+00" cType="1" res="1.6588496509939432e-03" rms="4.8196005821228027e-01" purity="6.3203877210617065e-01" nType="-99"/>
          <Node pos="r" depth="2" NCoef="0" IVar="-1" Cut="0.0000000000000000e+00" cType="1" res="-1.6602553660050035e-03" rms="4.8689547181129456e-01" purity="3.8907715678215027e-01" nType="-99"/>
        </Node>
        <Node pos="r" depth="1" NCoef="0" IVar="72" Cut="3.0370371341705322e+00" cType="1" res="-2.4826000630855560e-01" rms="4.2952665686607361e-01" purity="2.4582719802856445e-01" nType="0">
          <Node pos="l" depth="2" NCoef="0" IVar="-1" Cut="0.0000000000000000e+00" cType="1" res="-1.9367805216461420e-03" rms="4.8082801699638367e-01" purity="3.6564153432846069e-01" nType="-99"/>
          <Node pos="r" depth="2" NCoef="0" IVar="-1" Cut="0.0000000000000000e+00" cType="1" res="-9.3432897701859474e-03" rms="3.5725823044776917e-01" purity="1.5105973184108734e-01" nType="-99"/>
        </Node>
      </Node>
    </BinaryTree>
    <BinaryTree type="DecisionTree" boostWeight="1.0000000000000000e+00" itree="4">
      <Node pos="s" depth="0" NCoef="0" IVar="43" Cut="9.2463073730468750e+00" cType="1" res="-6.9110328331589699e-04" rms="4.9792400002479553e-01" purity="4.9845814704895020e-01" nType="0">
        <Node pos="l" depth="1" NCoef="0" IVar="2" Cut="8.3351135253906250e+00" cType="1" res="7.3598735034465790e-02" rms="4.9360358715057373e-01" purity="5.7521915435791016e-01" nType="0">
          <Node pos="l" depth="2" NCoef="0" IVar="-1" Cut="0.0000000000000000e+00" cType="1" res="1.6132919117808342e-03" rms="4.8457854986190796e-01" purity="6.2196642160415649e-01" nType="-99"/>
          <Node pos="r" depth="2" NCoef="0" IVar="-1" Cut="0.0000000000000000e+00" cType="1" res="-1.8357591470703483e-03" rms="4.8194763064384460e-01" purity="3.6912918090820312e-01" nType="-99"/>
        </Node>
        <Node pos="r" depth="1" NCoef="0" IVar="41" Cut="3.9773254394531250e+00" cType="1" res="-2.4624553322792053e-01" rms="4.2842581868171692e-01" purity="2.4473534524440765e-01" nType="0">
          <Node pos="l" depth="2" NCoef="0" IVar="-1" Cut="0.0000000000000000e+00" cType="1" res="-2.7734735049307346e-03" rms="4.7937142848968506e-01" purity="3.5899716615676880e-01" nType="-99"/>
          <Node pos="r" depth="2" NCoef="0" IVar="-1" Cut="0.0000000000000000e+00" cType="1" res="-7.1297110989689827e-03" rms="3.3528968691825867e-01" purity="1.2960053980350494e-01" nType="-99"/>
        </Node>
      </Node>
    </BinaryTree>
    <BinaryTree type="DecisionTree" boostWeight="1.0000000000000000e+00" itree="5">
      <Node pos="s" depth="0" NCoef="0" IVar="41" Cut="4.4906549453735352e+00" cType="1" res="2.1462121512740850e-03" rms="4.9747300148010254e-01" purity="5.0116604566574097e-01" nType="0">
        <Node pos="l" depth="1" NCoef="0" IVar="43" Cut="4.5586385726928711e+00" cType="1" res="7.4280641973018646e-02" rms="4.9322271347045898e-01" purity="5.7578045129776001e-01" nType="0">
          <Node pos="l" depth="2" NCoef="0" IVar="-1" Cut="0.0000000000000000e+00" cType="1" res="1.7853017197921872e-03" rms="4.8178073763847351e-01" purity="6.3291436433792114e-01" nType="-99"/>
          <Node pos="r" depth="2" NCoef="0" IVar="-1" Cut="0.0000000000000000e+00" cType="1" res="-1.3825055211782455e-03" rms="4.9283692240715027e-01" purity="4.1960114240646362e-01" nType="-99"/>
        </Node>
        <Node pos="r" depth="1" NCoef="0" IVar="43" Cut="7.6489624977111816e+00" cType="1" res="-2.6575565338134766e-01" rms="4.1475462913513184e-01" purity="2.2405377030372620e-01" nType="0">
          <Node pos="l" depth="2" NCoef="0" IVar="-1" Cut="0.0000000000000000e+00" cType="1" res="-1.9075761083513498e-03" rms="4.7181448340415955e-01" purity="3.3603397011756897e-01" nType="-99"/>
          <Node pos="r" depth="2" NCoef="0" IVar="-1" Cut="0.0000000000000000e+00" cType="1" res="-6.9899358786642551e-03" rms="3.3527424931526184e-01" purity="1.2961168587207794e-01" nType="-99"/>
        </Node>
      </Node>
    </BinaryTree>
    <BinaryTree type="DecisionTree" boostWeight="1.0000000000000000e+00" itree="6">
      <Node pos="s" depth="0" NCoef="0" IVar="43" Cut="8.4774436950683594e+00" cType="1" res="3.6685480154119432e-05" rms="4.9701517820358276e-01" purity="4.9889537692070007e-01" nType="0">
        <Node pos="l" depth="1" NCoef="0" IVar="2" Cut="9.9974164962768555e+00" cType="1" res="7.6303407549858093e-02" rms="4.9282789230346680e-01" purity="5.7900488376617432e-01" nType="0">
          <Node pos="l" depth="2" NCoef="0" IVar="-1" Cut="0.0000000000000000e+00" cType="1" res="1.5645484672859311e-03" rms="4.8550370335578918e-01" purity="6.1784094572067261e-01" nType="-99"/>
          <Node pos="r" depth="2" NCoef="0" IVar="-1" Cut="0.0000000000000000e+00" cType="1" res="-2.5436310097575188e-03" rms="4.7701624035835266e-01" purity="3.5227200388908386e-01" nType="-99"/>
        </Node>
        <Node pos="r" depth="1" NCoef="0" IVar="72" Cut="3.3703703880310059e+00" cType="1" res="-2.3588888347148895e-01" rms="4.3149903416633606e-01" purity="2.5108259916305542e-01" nType="0">
          <Node pos="l" depth="2" NCoef="0" IVar="-1" Cut="0.0000000000000000e+00" cType="1" res="-1.4702895423397422e-03" rms="4.8180004954338074e-01" purity="3.7099581956863403e-01" nType="-99"/>
          <Node pos="r" depth="2" NCoef="0" IVar="-1" Cut="0.0000000000000000e+00" cType="1" res="-8.9357243850827217e-03" rms="3.6010435223579407e-01" purity="1.5457443892955780e-01" nType="-99"/>
        </Node>
      </Node>
    </BinaryTree>
    <BinaryTree type="DecisionTree" boostWeight="1.0000000000000000e+00" itree="7">
      <Node pos="s" depth="0" NCoef="0" IVar="43" Cut="9.5035858154296875e+00" cType="1" res="-8.9884188491851091e-04" rms="4.9645018577575684e-01" purity="4.9769920110702515e-01" nType="0">
        <Node pos="l" depth="1" NCoef="0" IVar="5" Cut="6.8775014877319336e+00" cType="1" res="6.9214299321174622e-02" rms="4.9358496069908142e-01" purity="5.7211923599243164e-01" nType="0">
          <Node pos="l" depth="2" NCoef="0" IVar="-1" Cut="0.0000000000000000e+00" cType="1" res="1.6431191470474005e-03" rms="4.8349174857139587e-01" purity="6.2559264898300171e-01" nType="-99"/>
          <Node pos="r" depth="2" NCoef="0" IVar="-1" Cut="0.0000000000000000e+00" cType="1" res="-1.4594782842323184e-03" rms="4.8976790904998779e-01" purity="4.0533518791198730e-01" nType="-99"/>
        </Node>
        <Node pos="r" depth="1" NCoef="0" IVar="72" Cut="3.1851851940155029e+00" cType="1" res="-2.4108479917049408e-01" rms="4.2620515823364258e-01" purity="2.4275894463062286e-01" nType="0">
          <Node pos="l" depth="2" NCoef="0" IVar="-1" Cut="0.0000000000000000e+00" cType="1" res="-1.8709955038502812e-03" rms="4.7931677103042603e-01" purity="3.6171728372573853e-01" nType="-99"/>
          <Node pos="r" depth="2" NCoef="0" IVar="-1" Cut="0.0000000000000000e+00" cType="1" res="-9.1000897809863091e-03" rms="3.5348817706108093e-01" purity="1.4772365987300873e-01" nType="-99"/>
        </Node>
      </Node>
    </BinaryTree>
    <BinaryTree type="DecisionTree" boostWeight="1.0000000000000000e+00" itree="8">
      <Node pos="s" depth="0" NCoef="0" IVar="43" Cut="9.5035858154296875e+00" cType="1" res="2.7712052688002586e-03" rms="4.9582326412200928e-01" purity="5.0096434354782104e-01" nType="0">
        <Node pos="l" depth="1" NCoef="0" IVar="2" Cut="8.7132949829101562e+00" cType="1" res="7.3465444147586823e-02" rms="4.9271687865257263e-01" purity="5.7676017284393311e-01" nType="0">
          <Node pos="l" depth="2" NCoef="0" IVar="-1" Cut="0.0000000000000000e+00" cType="1" res="1.5509350923821330e-03" rms="4.8415103554725647e-01" purity="6.2270617485046387e-01" nType="-99"/>
          <Node pos="r" depth="2" NCoef="0" IVar="-1" Cut="0.0000000000000000e+00" cType="1" res="-1.9209589809179306e-03" rms="4.8033541440963745e-01" purity="3.6438009142875671e-01" nType="-99"/>
        </Node>
        <Node pos="r" depth="1" NCoef="0" IVar="41" Cut="6.5325956344604492e+00" cType="1" res="-2.3810666799545288e-01" rms="4.2573821544647217e-01" purity="2.4270375072956085e-01" nType="0">
          <Node pos="l" depth="2" NCoef="0" IVar="-1" Cut="0.0000000000000000e+00" cType="1" res="-3.4005518537014723e-03" rms="4.6737655997276306e-01" purity="3.2661238312721252e-01" nType="-99"/>
          <Node pos="r" depth="2" NCoef="0" IVar="-1" Cut="0.0000000000000000e+00" cType="1" res="-6.7835561931133270e-03" rms="2.9595720767974854e-01" purity="9.7448922693729401e-02" nType="-99"/>
        </Node>
      </Node>
    </BinaryTree>
    <BinaryTree type="DecisionTree" boostWeight="1.0000000000000000e+00" itree="9">
      <Node pos="s" depth="0" NCoef="0" IVar="41" Cut="5.0452394485473633e+00" cType="1" res="3.6760249640792608e-03" rms="4.9544489383697510e-01" purity="5.0179535150527954e-01" nType="0">
        <Node pos="l" depth="1" NCoef="0" IVar="43" Cut="4.5586385726928711e+00" cType="1" res="6.8298406898975372e-02" rms="4.9288976192474365e-01" purity="5.7028615474700928e-01" nType="0">
          <Node pos="l" depth="2" NCoef="0" IVar="-1" Cut="0.0000000000000000e+00" cType="1" res="1.6974445898085833e-03" rms="4.8177364468574524e-01" purity="6.3197880983352661e-01" nType="-99"/>
          <Node pos="r" depth="2" NCoef="0" IVar="-1" Cut="0.0000000000000000e+00" cType="1" res="-1.4550117775797844e-03" rms="4.8937612771987915e-01" purity="4.0627694129943848e-01" nType="-99"/>
        </Node>
        <Node pos="r" depth="1" NCoef="0" IVar="43" Cut="1.2651560783386230e+01" cType="1" res="-2.7251797914505005e-01" rms="4.0265038609504700e-01" purity="2.0906792581081390e-01" nType="0">
          <Node pos="l" depth="2" NCoef="0" IVar="-1" Cut="0.0000000000000000e+00" cType="1" res="-2.8279544785618782e-03" rms="4.5496696233749390e-01" purity="2.9663449525833130e-01" nType="-99"/>
          <Node pos="r" depth="2" NCoef="0" IVar="-1" Cut="0.0000000000000000e+00" cType="1" res="-6.7670382559299469e-03" rms="2.9159197211265564e-01" purity="9.4458423554897308e-02" nType="-99"/>
        </Node>
      </Node>
    </BinaryTree>
    <BinaryTree type="DecisionTree" boostWeight="1.0000000000000000e+00" itree="10">
      <Node pos="s" depth="0" NCoef="0" IVar="5" Cut="1.0382537841796875e+01" cType="1" res="4.6629095450043678e-03" rms="4.9496060609817505e-01" purity="5.0266414880752563e-01" nType="0">
        <Node pos="l" depth="1" NCoef="0" IVar="43" Cut="4.2517929077148438e+00" cType="1" res="7.7518448233604431e-02" rms="4.9072927236557007e-01" purity="5.7987546920776367e-01" nType="0">
          <Node pos="l" depth="2" NCoef="0" IVar="-1" Cut="0.0000000000000000e+00" cType="1" res="1.7098872922360897e-03" rms="4.7830629348754883e-01" purity="6.4445817470550537e-01" nType="-99"/>
          <Node pos="r" depth="2" NCoef="0" IVar="-1" Cut="0.0000000000000000e+00" cType="1" res="-1.3304599560797215e-03" rms="4.8883488774299622e-01" purity="4.1191616654396057e-01" nType="-99"/>
        </Node>
        <Node pos="r" depth="1" NCoef="0" IVar="41" Cut="4.3020496368408203e+00" cType="1" res="-2.2184249758720398e-01" rms="4.3605729937553406e-01" purity="2.6261675357818604e-01" nType="0">
          <Node pos="l" depth="2" NCoef="0" IVar="-1" Cut="0.0000000000000000e+00" cType="1" res="-3.1524200458079576e-03" rms="4.8202100396156311e-01" purity="3.7178575992584229e-01" nType="-99"/>
          <Node pos="r" depth="2" NCoef="0" IVar="-1" Cut="0.0000000000000000e+00" cType="1" res="-5.0207455642521381e-03" rms="3.5772681236267090e-01" purity="1.5366750955581665e-01" nType="-99"/>
        </Node>
      </Node>
    </BinaryTree>
    <BinaryTree type="DecisionTree" boostWeight="1.0000000000000000e+00" itree="11">
      <Node pos="s" depth="0" NCoef="0" IVar="2" Cut="7.3297510147094727e+00" cType="1" res="6.4963088370859623e-03" rms="4.9454513192176819e-01" purity="5.0430798530578613e-01" nType="0">
        <Node pos="l" depth="1" NCoef="0" IVar="42" Cut="4.5779266357421875e+00" cType="1" res="9.0415544807910919e-02" rms="4.8844033479690552e-01" purity="5.9411847591400146e-01" nType="0">
          <Node pos="l" depth="2" NCoef="0" IVar="-1" Cut="0.0000000000000000e+00" cType="1" res="1.7160477582365274e-03" rms="4.7649222612380981e-01" purity="6.5066379308700562e-01" nType="-99"/>
          <Node pos="r" depth="2" NCoef="0" IVar="-1" Cut="0.0000000000000000e+00" cType="1" res="-1.4425754779949784e-03" rms="4.9011385440826416e-01" purity="4.1778039932250977e-01" nType="-99"/>
        </Node>
        <Node pos="r" depth="1" NCoef="0" IVar="41" Cut="6.6946806907653809e+00" cType="1" res="-1.8917915225028992e-01" rms="4.5150581002235413e-01" purity="2.9489579796791077e-01" nType="0">
          <Node pos="l" depth="2" NCoef="0" IVar="-1" Cut="0.0000000000000000e+00" cType="1" res="-2.1424787119030952e-03" rms="4.8423549532890320e-01" purity="3.8466608524322510e-01" nType="-99"/>
          <Node pos="r" depth="2" NCoef="0" IVar="-1" Cut="0.0000000000000000e+00" cType="1" res="-5.0458959303796291e-03" rms="3.3638128638267517e-01" purity="1.3228158652782440e-01" nType="-99"/>
        </Node>
      </Node>
    </BinaryTree>
    <BinaryTree type="DecisionTree" boostWeight="1.0000000000000000e+00" itree="12">
      <Node pos="s" depth="0" NCoef="0" IVar="41" Cut="5.0815458297729492e+00" cType="1" res="3.8623129948973656e-03" rms="4.9418333172798157e-01" purity="5.0145047903060913e-01" nType="0">
        <Node pos="l" depth="1" NCoef="0" IVar="43" Cut="4.2517929077148438e+00" cType="1" res="6.9008752703666687e-02" rms="4.9211913347244263e-01" purity="5.7167232036590576e-01" nType="0">
          <Node pos="l" depth="2" NCoef="0" IVar="-1" Cut="0.0000000000000000e+00" cType="1" res="1.6702533466741443e-03" rms="4.8103931546211243e-01" purity="6.3390290737152100e-01" nType="-99"/>
          <Node pos="r" depth="2" NCoef="0" IVar="-1" Cut="0.0000000000000000e+00" cType="1" res="-1.3252872740849853e-03" rms="4.9105861783027649e-01" purity="4.1767352819442749e-01" nType="-99"/>
        </Node>
        <Node pos="r" depth="1" NCoef="0" IVar="43" Cut="1.2780799865722656e+01" cType="1" res="-2.7397173643112183e-01" rms="3.9699903130531311e-01" purity="2.0197111368179321e-01" nType="0">
          <Node pos="l" depth="2" NCoef="0" IVar="-1" Cut="0.0000000000000000e+00" cType="1" res="-2.7768991421908140e-03" rms="4.4880652427673340e-01" purity="2.8396216034889221e-01" nType="-99"/>
          <Node pos="r" depth="2" NCoef="0" IVar="-1" Cut="0.0000000000000000e+00" cType="1" res="-6.7184176295995712e-03" rms="2.9355767369270325e-01" purity="9.6089743077754974e-02" nType="-99"/>
        </Node>
      </Node>
    </BinaryTree>
    <BinaryTree type="DecisionTree" boostWeight="1.0000000000000000e+00" itree="13">
      <Node pos="s" depth="0" NCoef="0" IVar="41" Cut="5.0815458297729492e+00" cType="1" res="9.6794433193281293e-04" rms="4.9383074045181274e-01" purity="4.9850681424140930e-01" nType="0">
        <Node pos="l" depth="1" NCoef="0" IVar="43" Cut="9.5035858154296875e+00" cType="1" res="6.6593766212463379e-02" rms="4.9233469367027283e-01" purity="5.6974357366561890e-01" nType="0">
          <Node pos="l" depth="2" NCoef="0" IVar="-1" Cut="0.0000000000000000e+00" cType="1" res="1.4351400313898921e-03" rms="4.8632696270942688e-01" purity="6.1155658960342407e-01" nType="-99"/>
          <Node pos="r" depth="2" NCoef="0" IVar="-1" Cut="0.0000000000000000e+00" cType="1" res="-2.8720770496875048e-03" rms="4.7427475452423096e-01" purity="3.4576189517974854e-01" nType="-99"/>
        </Node>
        <Node pos="r" depth="1" NCoef="0" IVar="72" Cut="3.3703703880310059e+00" cType="1" res="-2.7609306573867798e-01" rms="3.9389383792877197e-01" purity="1.9775749742984772e-01" nType="0">
          <Node pos="l" depth="2" NCoef="0" IVar="-1" Cut="0.0000000000000000e+00" cType="1" res="-2.3726145736873150e-03" rms="4.5568746328353882e-01" purity="2.9992142319679260e-01" nType="-99"/>
          <Node pos="r" depth="2" NCoef="0" IVar="-1" Cut="0.0000000000000000e+00" cType="1" res="-5.8957217261195183e-03" rms="3.2839444279670715e-01" purity="1.2591341137886047e-01" nType="-99"/>
        </Node>
      </Node>
    </BinaryTree>
    <BinaryTree type="DecisionTree" boostWeight="1.0000000000000000e+00" itree="14">
      <Node pos="s" depth="0" NCoef="0" IVar="41" Cut="4.4906549453735352e+00" cType="1" res="1.2431947980076075e-03" rms="4.9334439635276794e-01" purity="4.9861088395118713e-01" nType="0">
        <Node pos="l" depth="1" NCoef="0" IVar="43" Cut="8.7611398696899414e+00" cType="1" res="6.9256454706192017e-02" rms="4.9176323413848877e-01" purity="5.7310706377029419e-01" nType="0">
          <Node pos="l" depth="2" NCoef="0" IVar="-1" Cut="0.0000000000000000e+00" cType="1" res="1.5025944449007511e-03" rms="4.8480328917503357e-01" purity="6.1833870410919189e-01" nType="-99"/>
          <Node pos="r" depth="2" NCoef="0" IVar="-1" Cut="0.0000000000000000e+00" cType="1" res="-2.6023718528449535e-03" rms="4.7510060667991638e-01" purity="3.4757655858993530e-01" nType="-99"/>
        </Node>
        <Node pos="r" depth="1" NCoef="0" IVar="41" Cut="8.0707912445068359e+00" cType="1" res="-2.4334926903247833e-01" rms="4.1536650061607361e-01" purity="2.3070415854454041e-01" nType="0">
          <Node pos="l" depth="2" NCoef="0" IVar="-1" Cut="0.0000000000000000e+00" cType="1" res="-2.4895940441638231e-03" rms="4.6710613369941711e-01" purity="3.3586889505386353e-01" nType="-99"/>
          <Node pos="r" depth="2" NCoef="0" IVar="-1" Cut="0.0000000000000000e+00" cType="1" res="-4.9602584913372993e-03" rms="3.3847659826278687e-01" purity="1.3500492274761200e-01" nType="-99"/>
        </Node>
      </Node>
    </BinaryTree>
    <BinaryTree type="DecisionTree" boostWeight="1.0000000000000000e+00" itree="15">
      <Node pos="s" depth="0" NCoef="0" IVar="43" Cut="8.6775999069213867e+00" cType="1" res="3.8146746810525656e-03" rms="4.9302220344543457e-01" purity="5.0121527910232544e-01" nType="0">
        <Node pos="l" depth="1" NCoef="0" IVar="2" Cut="1.0091288566589355e+01" cType="1" res="7.4462331831455231e-02" rms="4.9101138114929199e-01" purity="5.8059352636337280e-01" nType="0">
          <Node pos="l" depth="2" NCoef="0" IVar="-1" Cut="0.0000000000000000e+00" cType="1" res="1.4861541567370296e-03" rms="4.8434785008430481e-01" purity="6.1959594488143921e-01" nType="-99"/>
          <Node pos="r" depth="2" NCoef="0" IVar="-1" Cut="0.0000000000000000e+00" cType="1" res="-1.9530170829966664e-03" rms="4.7528812289237976e-01" purity="3.5049873590469360e-01" nType="-99"/>
        </Node>
        <Node pos="r" depth="1" NCoef="0" IVar="72" Cut="3.3703703880310059e+00" cType="1" res="-2.2064593434333801e-01" rms="4.2792230844497681e-01" purity="2.4901597201824188e-01" nType="0">
          <Node pos="l" depth="2" NCoef="0" IVar="-1" Cut="0.0000000000000000e+00" cType="1" res="-1.6639007953926921e-03" rms="4.8103097081184387e-01" purity="3.7169298529624939e-01" nType="-99"/>
          <Node pos="r" depth="2" NCoef="0" IVar="-1" Cut="0.0000000000000000e+00" cType="1" res="-8.4134684875607491e-03" rms="3.5569864511489868e-01" purity="1.5133947134017944e-01" nType="-99"/>
        </Node>
      </Node>
    </BinaryTree>
    <BinaryTree type="DecisionTree" boostWeight="1.0000000000000000e+00" itree="16">
      <Node pos="s" depth="0" NCoef="0" IVar="41" Cut="5.0815458297729492e+00" cType="1" res="2.6072391774505377e-03" rms="4.9258095026016235e-01" purity="4.9975270032882690e-01" nType="0">
        <Node pos="l" depth="1" NCoef="0" IVar="42" Cut="4.2630624771118164e+00" cType="1" res="6.3787460327148438e-02" rms="4.9199381470680237e-01" purity="5.6772238016128540e-01" nType="0">
          <Node pos="l" depth="2" NCoef="0" IVar="-1" Cut="0.0000000000000000e+00" cType="1" res="1.6338701825588942e-03" rms="4.8204666376113892e-01" purity="6.2987583875656128e-01" nType="-99"/>
          <Node pos="r" depth="2" NCoef="0" IVar="-1" Cut="0.0000000000000000e+00" cType="1" res="-1.2709873262792826e-03" rms="4.8961785435676575e-01" purity="4.1282925009727478e-01" nType="-99"/>
        </Node>
        <Node pos="r" depth="1" NCoef="0" IVar="42" Cut="1.1935309410095215e+01" cType="1" res="-2.6165071129798889e-01" rms="3.9891526103019714e-01" purity="2.0616877079010010e-01" nType="0">
          <Node pos="l" depth="2" NCoef="0" IVar="-1" Cut="0.0000000000000000e+00" cType="1" res="-2.6354454457759857e-03" rms="4.5470049977302551e-01" purity="2.9767635464668274e-01" nType="-99"/>
          <Node pos="r" depth="2" NCoef="0" IVar="-1" Cut="0.0000000000000000e+00" cType="1" res="-6.4684678800404072e-03" rms="2.9672843217849731e-01" purity="9.8610281944274902e-02" nType="-99"/>
        </Node>
      </Node>
    </BinaryTree>
    <BinaryTree type="DecisionTree" boostWeight="1.0000000000000000e+00" itree="17">
      <Node pos="s" depth="0" NCoef="0" IVar="43" Cut="8.7611398696899414e+00" cType="1" res="1.7263063928112388e-03" rms="4.9210458993911743e-01" purity="4.9874937534332275e-01" nType="0">
        <Node pos="l" depth="1" NCoef="0" IVar="2" Cut="9.4569654464721680e+00" cType="1" res="7.1201831102371216e-02" rms="4.9110567569732666e-01" purity="5.7818245887756348e-01" nType="0">
          <Node pos="l" depth="2" NCoef="0" IVar="-1" Cut="0.0000000000000000e+00" cType="1" res="1.4856804627925158e-03" rms="4.8403996229171753e-01" purity="6.2084710597991943e-01" nType="-99"/>
          <Node pos="r" depth="2" NCoef="0" IVar="-1" Cut="0.0000000000000000e+00" cType="1" res="-1.8530148081481457e-03" rms="4.7540193796157837e-01" purity="3.5193404555320740e-01" nType="-99"/>
        </Node>
        <Node pos="r" depth="1" NCoef="0" IVar="72" Cut="3.0370371341705322e+00" cType="1" res="-2.1984978020191193e-01" rms="4.2521670460700989e-01" purity="2.4541594088077545e-01" nType="0">
          <Node pos="l" depth="2" NCoef="0" IVar="-1" Cut="0.0000000000000000e+00" cType="1" res="-1.6335985856130719e-03" rms="4.7753432393074036e-01" purity="3.6014351248741150e-01" nType="-99"/>
          <Node pos="r" depth="2" NCoef="0" IVar="-1" Cut="0.0000000000000000e+00" cType="1" res="-8.3201350644230843e-03" rms="3.5499405860900879e-01" purity="1.5091060101985931e-01" nType="-99"/>
        </Node>
      </Node>
    </BinaryTree>
    <BinaryTree type="DecisionTree" boostWeight="1.0000000000000000e+00" itree="18">
      <Node pos="s" depth="0" NCoef="0" IVar="2" Cut="6.9796705245971680e+00" cType="1" res="1.2055109255015850e-04" rms="4.9170312285423279e-01" purity="4.9691891670227051e-01" nType="0">
        <Node pos="l" depth="1" NCoef="0" IVar="42" Cut="4.2630624771118164e+00" cType="1" res="8.1105165183544159e-02" rms="4.8846870660781860e-01" purity="5.8722519874572754e-01" nType="0">
          <Node pos="l" depth="2" NCoef="0" IVar="-1" Cut="0.0000000000000000e+00" cType="1" res="1.6716396203264594e-03" rms="4.7849500179290771e-01" purity="6.4358490705490112e-01" nType="-99"/>
          <Node pos="r" depth="2" NCoef="0" IVar="-1" Cut="0.0000000000000000e+00" cType="1" res="-1.0945835383608937e-03" rms="4.8930796980857849e-01" purity="4.2222839593887329e-01" nType="-99"/>
        </Node>
        <Node pos="r" depth="1" NCoef="0" IVar="41" Cut="9.2893400192260742e+00" cType="1" res="-1.8005782365798950e-01" rms="4.4918751716613770e-01" purity="2.9600140452384949e-01" nType="0">
          <Node pos="l" depth="2" NCoef="0" IVar="-1" Cut="0.0000000000000000e+00" cType="1" res="-2.4114488624036312e-03" rms="4.7517231106758118e-01" purity="3.6004760861396790e-01" nType="-99"/>
          <Node pos="r" depth="2" NCoef="0" IVar="-1" Cut="0.0000000000000000e+00" cType="1" res="-4.6262503601610661e-03" rms="3.0291384458541870e-01" purity="1.0449912399053574e-01" nType="-99"/>
        </Node>
      </Node>
    </BinaryTree>
    <BinaryTree type="DecisionTree" boostWeight="1.0000000000000000e+00" itree="19">
      <Node pos="s" depth="0" NCoef="0" IVar="41" Cut="5.0452394485473633e+00" cType="1" res="3.0290281865745783e-03" rms="4.9141114950180054e-01" purity="4.9970164895057678e-01" nType="0">
        <Node pos="l" depth="1" NCoef="0" IVar="39" Cut="2.4963001906871796e-01" cType="1" res="6.3493885099887848e-02" rms="4.9141624569892883e-01" purity="5.6808602809906006e-01" nType="0">
          <Node pos="l" depth="2" NCoef="0" IVar="-1" Cut="0.0000000000000000e+00" cType="1" res="1.5818958636373281e-03" rms="4.8172217607498169e-01" purity="6.2664473056793213e-01" nType="-99"/>
          <Node pos="r" depth="2" NCoef="0" IVar="-1" Cut="0.0000000000000000e+00" cType="1" res="-1.1258169542998075e-03" rms="4.9002066254615784e-01" purity="4.2911514639854431e-01" nType="-99"/>
        </Node>
        <Node pos="r" depth="1" NCoef="0" IVar="42" Cut="7.7505159378051758e+00" cType="1" res="-2.5696024298667908e-01" rms="3.9767929911613464e-01" purity="2.0565967261791229e-01" nType="0">
          <Node pos="l" depth="2" NCoef="0" IVar="-1" Cut="0.0000000000000000e+00" cType="1" res="-2.1491348743438721e-03" rms="4.6281182765960693e-01" purity="3.1653967499732971e-01" nType="-99"/>
          <Node pos="r" depth="2" NCoef="0" IVar="-1" Cut="0.0000000000000000e+00" cType="1" res="-6.2940553762018681e-03" rms="3.2424888014793396e-01" purity="1.2144558131694794e-01" nType="-99"/>
        </Node>
      </Node>
    </BinaryTree>
    <BinaryTree type="DecisionTree" boostWeight="1.0000000000000000e+00" itree="20">
      <Node pos="s" depth="0" NCoef="0" IVar="2" Cut="6.2030148506164551e+00" cType="1" res="7.7084456570446491e-03" rms="4.9094039201736450e-01" purity="5.0430297851562500e-01" nType="0">
        <Node pos="l" depth="1" NCoef="0" IVar="43" Cut="4.2517929077148438e+00" cType="1" res="9.3921117484569550e-02" rms="4.8566979169845581e-01" purity="6.0143113136291504e-01" nType="0">
          <Node pos="l" depth="2" NCoef="0" IVar="-1" Cut="0.0000000000000000e+00" cType="1" res="1.6913372091948986e-03" rms="4.7516942024230957e-01" purity="6.5412247180938721e-01" nType="-99"/>
          <Node pos="r" depth="2" NCoef="0" IVar="-1" Cut="0.0000000000000000e+00" cType="1" res="-1.1723489733412862e-03" rms="4.9107223749160767e-01" purity="4.3614858388900757e-01" nType="-99"/>
        </Node>
        <Node pos="r" depth="1" NCoef="0" IVar="6" Cut="6.7351303100585938e+00" cType="1" res="-1.5855407714843750e-01" rms="4.5713457465171814e-01" purity="3.1698980927467346e-01" nType="0">
          <Node pos="l" depth="2" NCoef="0" IVar="-1" Cut="0.0000000000000000e+00" cType="1" res="-1.3112956658005714e-03" rms="4.8294687271118164e-01" purity="3.9650484919548035e-01" nType="-99"/>
          <Node pos="r" depth="2" NCoef="0" IVar="-1" Cut="0.0000000000000000e+00" cType="1" res="-7.1159405633807182e-03" rms="3.5687473416328430e-01" purity="1.5514889359474182e-01" nType="-99"/>
        </Node>
      </Node>
    </BinaryTree>
    <BinaryTree type="DecisionTree" boostWeight="1.0000000000000000e+00" itree="21">
      <Node pos="s" depth="0" NCoef="0" IVar="41" Cut="5.9028983116149902e+00" cType="1" res="1.0669347830116749e-03" rms="4.9059346318244934e-01" purity="4.9732291698455811e-01" nType="0">
        <Node pos="l" depth="1" NCoef="0" IVar="42" Cut="4.2630624771118164e+00" cType="1" res="5.4349705576896667e-02" rms="4.9181774258613586e-01" purity="5.5837023258209229e-01" nType="0">
          <Node pos="l" depth="2" NCoef="0" IVar="-1" Cut="0.0000000000000000e+00" cType="1" res="1.5353026101365685e-03" rms="4.8286181688308716e-01" purity="6.2492477893829346e-01" nType="-99"/>
          <Node pos="r" depth="2" NCoef="0" IVar="-1" Cut="0.0000000000000000e+00" cType="1" res="-1.3742118608206511e-03" rms="4.8600012063980103e-01" purity="3.9920911192893982e-01" nType="-99"/>
        </Node>
        <Node pos="r" depth="1" NCoef="0" IVar="73" Cut="1.1111111193895340e-01" cType="1" res="-2.7405697107315063e-01" rms="3.7963020801544189e-01" purity="1.8210704624652863e-01" nType="0">
          <Node pos="l" depth="2" NCoef="0" IVar="-1" Cut="0.0000000000000000e+00" cType="1" res="-1.7228325596079230e-03" rms="4.7430133819580078e-01" purity="3.4913977980613708e-01" nType="-99"/>
          <Node pos="r" depth="2" NCoef="0" IVar="-1" Cut="0.0000000000000000e+00" cType="1" res="-5.4604238830506802e-03" rms="3.4297534823417664e-01" purity="1.4003665745258331e-01" nType="-99"/>
        </Node>
      </Node>
    </BinaryTree>
    <BinaryTree type="DecisionTree" boostWeight="1.0000000000000000e+00" itree="22">
      <Node pos="s" depth="0" NCoef="0" IVar="41" Cut="5.0815458297729492e+00" cType="1" res="4.4336500577628613e-03" rms="4.9018266797065735e-01" purity="5.0062984228134155e-01" nType="0">
        <Node pos="l" depth="1" NCoef="0" IVar="43" Cut="4.2517929077148438e+00" cType="1" res="6.3649475574493408e-02" rms="4.9070075154304504e-01" purity="5.6902778148651123e-01" nType="0">
          <Node pos="l" depth="2" NCoef="0" IVar="-1" Cut="0.0000000000000000e+00" cType="1" res="1.5823440626263618e-03" rms="4.8102274537086487e-01" purity="6.3262856006622314e-01" nType="-99"/>
          <Node pos="r" depth="2" NCoef="0" IVar="-1" Cut="0.0000000000000000e+00" cType="1" res="-1.2030942598357797e-03" rms="4.8849049210548401e-01" purity="4.1114065051078796e-01" nType="-99"/>
        </Node>
        <Node pos="r" depth="1" NCoef="0" IVar="72" Cut="3.2222223281860352e+00" cType="1" res="-2.4953201413154602e-01" rms="3.9819875359535217e-01" purity="2.0728407800197601e-01" nType="0">
          <Node pos="l" depth="2" NCoef="0" IVar="-1" Cut="0.0000000000000000e+00" cType="1" res="-2.2300120908766985e-03" rms="4.5968458056449890e-01" purity="3.1339702010154724e-01" nType="-99"/>
          <Node pos="r" depth="2" NCoef="0" IVar="-1" Cut="0.0000000000000000e+00" cType="1" res="-5.5588446557521820e-03" rms="3.3372652530670166e-01" purity="1.3242724537849426e-01" nType="-99"/>
        </Node>
      </Node>
    </BinaryTree>
    <BinaryTree type="DecisionTree" boostWeight="1.0000000000000000e+00" itree="23">
      <Node pos="s" depth="0" NCoef="0" IVar="43" Cut="4.5586385726928711e+00" cType="1" res="7.3302770033478737e-03" rms="4.8980358242988586e-01" purity="5.0347244739532471e-01" nType="0">
        <Node pos="l" depth="1" NCoef="0" IVar="2" Cut="8.4911642074584961e+00" cType="1" res="9.4202451407909393e-02" rms="4.8570254445075989e-01" purity="6.0625678300857544e-01" nType="0">
          <Node pos="l" depth="2" NCoef="0" IVar="-1" Cut="0.0000000000000000e+00" cType="1" res="1.5936073614284396e-03" rms="4.7743609547615051e-01" purity="6.4587032794952393e-01" nType="-99"/>
          <Node pos="r" depth="2" NCoef="0" IVar="-1" Cut="0.0000000000000000e+00" cType="1" res="-1.8026852048933506e-03" rms="4.8717662692070007e-01" purity="4.0084120631217957e-01" nType="-99"/>
        </Node>
        <Node pos="r" depth="1" NCoef="0" IVar="41" Cut="6.9484825134277344e+00" cType="1" res="-1.5504737198352814e-01" rms="4.5487651228904724e-01" purity="3.1135255098342896e-01" nType="0">
          <Node pos="l" depth="2" NCoef="0" IVar="-1" Cut="0.0000000000000000e+00" cType="1" res="-1.6297344118356705e-03" rms="4.8265412449836731e-01" purity="3.8652211427688599e-01" nType="-99"/>
          <Node pos="r" depth="2" NCoef="0" IVar="-1" Cut="0.0000000000000000e+00" cType="1" res="-5.8888643980026245e-03" rms="3.1934434175491333e-01" purity="1.1771702766418457e-01" nType="-99"/>
        </Node>
      </Node>
    </BinaryTree>
    <BinaryTree type="DecisionTree" boostWeight="1.0000000000000000e+00" itree="24">
      <Node pos="s" depth="0" NCoef="0" IVar="41" Cut="4.5296654701232910e+00" cType="1" res="4.6421396546065807e-03" rms="4.8951667547225952e-01" purity="5.0059390068054199e-01" nType="0">
        <Node pos="l" depth="1" NCoef="0" IVar="5" Cut="9.3619928359985352e+00" cType="1" res="6.8489558994770050e-02" rms="4.8989605903625488e-01" purity="5.7506036758422852e-01" nType="0">
          <Node pos="l" depth="2" NCoef="0" IVar="-1" Cut="0.0000000000000000e+00" cType="1" res="1.4442810788750648e-03" rms="4.8317828774452209e-01" purity="6.1727225780487061e-01" nType="-99"/>
          <Node pos="r" depth="2" NCoef="0" IVar="-1" Cut="0.0000000000000000e+00" cType="1" res="-2.0484309643507004e-03" rms="4.8225930333137512e-01" purity="3.7812924385070801e-01" nType="-99"/>
        </Node>
        <Node pos="r" depth="1" NCoef="0" IVar="42" Cut="7.7505159378051758e+00" cType="1" res="-2.3143158853054047e-01" rms="4.0920546650886536e-01" purity="2.2525666654109955e-01" nType="0">
          <Node pos="l" depth="2" NCoef="0" IVar="-1" Cut="0.0000000000000000e+00" cType="1" res="-1.7592959338799119e-03" rms="4.6989190578460693e-01" purity="3.3906799554824829e-01" nType="-99"/>
          <Node pos="r" depth="2" NCoef="0" IVar="-1" Cut="0.0000000000000000e+00" cType="1" res="-6.1207767575979233e-03" rms="3.3267495036125183e-01" purity="1.2975957989692688e-01" nType="-99"/>
        </Node>
      </Node>
    </BinaryTree>
    <BinaryTree type="DecisionTree" boostWeight="1.0000000000000000e+00" itree="25">
      <Node pos="s" depth="0" NCoef="0" IVar="3" Cut="3.3252820968627930e+00" cType="1" res="6.2689995393157005e-03" rms="4.8912331461906433e-01" purity="5.0224250555038452e-01" nType="0">
        <Node pos="l" depth="1" NCoef="0" IVar="43" Cut="9.5035858154296875e+00" cType="1" res="6.4678564667701721e-02" rms="4.8885148763656616e-01" purity="5.6887817382812500e-01" nType="0">
          <Node pos="l" depth="2" NCoef="0" IVar="-1" Cut="0.0000000000000000e+00" cType="1" res="1.3562095118686557e-03" rms="4.8455855250358582e-01" purity="6.1329793930053711e-01" nType="-99"/>
          <Node pos="r" depth="2" NCoef="0" IVar="-1" Cut="0.0000000000000000e+00" cType="1" res="-2.1227879915386438e-03" rms="4.6528026461601257e-01" purity="3.3171659708023071e-01" nType="-99"/>
        </Node>
        <Node pos="r" depth="1" NCoef="0" IVar="6" Cut="8.3940811157226562e+00" cType="1" res="-2.2766518592834473e-01" rms="4.1462898254394531e-01" purity="2.3536202311515808e-01" nType="0">
          <Node pos="l" depth="2" NCoef="0" IVar="-1" Cut="0.0000000000000000e+00" cType="1" res="-2.4991603568196297e-03" rms="4.5838758349418640e-01" purity="3.2180675864219666e-01" nType="-99"/>
          <Node pos="r" depth="2" NCoef="0" IVar="-1" Cut="0.0000000000000000e+00" cType="1" res="-7.1409647352993488e-03" rms="3.2960650324821472e-01" purity="1.2824615836143494e-01" nType="-99"/>
        </Node>
      </Node>
    </BinaryTree>
    <BinaryTree type="DecisionTree" boostWeight="1.0000000000000000e+00" itree="26">
      <Node pos="s" depth="0" NCoef="0" IVar="41" Cut="4.4906549453735352e+00" cType="1" res="5.0748591311275959e-03" rms="4.8884698748588562e-01" purity="5.0098466873168945e-01" nType="0">
        <Node pos="l" depth="1" NCoef="0" IVar="42" Cut="4.5779266357421875e+00" cType="1" res="6.6944681107997894e-02" rms="4.8968780040740967e-01" purity="5.7419776916503906e-01" nType="0">
          <Node pos="l" depth="2" NCoef="0" IVar="-1" Cut="0.0000000000000000e+00" cType="1" res="1.5935284318402410e-03" rms="4.8090896010398865e-01" purity="6.3229101896286011e-01" nType="-99"/>
          <Node pos="r" depth="2" NCoef="0" IVar="-1" Cut="0.0000000000000000e+00" cType="1" res="-1.1439985828474164e-03" rms="4.8885026574134827e-01" purity="4.1257283091545105e-01" nType="-99"/>
        </Node>
        <Node pos="r" depth="1" NCoef="0" IVar="43" Cut="1.2780799865722656e+01" cType="1" res="-2.2564995288848877e-01" rms="4.1035878658294678e-01" purity="2.2795853018760681e-01" nType="0">
          <Node pos="l" depth="2" NCoef="0" IVar="-1" Cut="0.0000000000000000e+00" cType="1" res="-2.1960441954433918e-03" rms="4.5917677879333496e-01" purity="3.1425976753234863e-01" nType="-99"/>
          <Node pos="r" depth="2" NCoef="0" IVar="-1" Cut="0.0000000000000000e+00" cType="1" res="-6.1950511299073696e-03" rms="3.0417716503143311e-01" purity="1.0523836314678192e-01" nType="-99"/>
        </Node>
      </Node>
    </BinaryTree>
    <BinaryTree type="DecisionTree" boostWeight="1.0000000000000000e+00" itree="27">
      <Node pos="s" depth="0" NCoef="0" IVar="2" Cut="5.7304172515869141e+00" cType="1" res="5.3258035331964493e-03" rms="4.8830094933509827e-01" purity="5.0095754861831665e-01" nType="0">
        <Node pos="l" depth="1" NCoef="0" IVar="43" Cut="4.2517929077148438e+00" cType="1" res="9.2966668307781219e-02" rms="4.8436641693115234e-01" purity="6.0348236560821533e-01" nType="0">
          <Node pos="l" depth="2" NCoef="0" IVar="-1" Cut="0.0000000000000000e+00" cType="1" res="1.7270037205889821e-03" rms="4.7452220320701599e-01" purity="6.5553253889083862e-01" nType="-99"/>
          <Node pos="r" depth="2" NCoef="0" IVar="-1" Cut="0.0000000000000000e+00" cType="1" res="-9.7734027076512575e-04" rms="4.9075305461883545e-01" purity="4.3904033303260803e-01" nType="-99"/>
        </Node>
        <Node pos="r" depth="1" NCoef="0" IVar="41" Cut="4.5296654701232910e+00" cType="1" res="-1.4948166906833649e-01" rms="4.5570266246795654e-01" purity="3.1985926628112793e-01" nType="0">
          <Node pos="l" depth="2" NCoef="0" IVar="-1" Cut="0.0000000000000000e+00" cType="1" res="-9.2434656107798219e-04" rms="4.8974713683128357e-01" purity="4.2420515418052673e-01" nType="-99"/>
          <Node pos="r" depth="2" NCoef="0" IVar="-1" Cut="0.0000000000000000e+00" cType="1" res="-4.0479023009538651e-03" rms="3.8126969337463379e-01" purity="1.8563356995582581e-01" nType="-99"/>
        </Node>
      </Node>
    </BinaryTree>
    <BinaryTree type="DecisionTree" boostWeight="1.0000000000000000e+00" itree="28">
      <Node pos="s" depth="0" NCoef="0" IVar="41" Cut="5.5559139251708984e+00" cType="1" res="2.3006566334515810e-03" rms="4.8823010921478271e-01" purity="4.9807277321815491e-01" nType="0">
        <Node pos="l" depth="1" NCoef="0" IVar="42" Cut="8.6422719955444336e+00" cType="1" res="5.5939599871635437e-02" rms="4.9056908488273621e-01" purity="5.6242650747299194e-01" nType="0">
          <Node pos="l" depth="2" NCoef="0" IVar="-1" Cut="0.0000000000000000e+00" cType="1" res="1.3122506206855178e-03" rms="4.8617616295814514e-01" purity="6.0721391439437866e-01" nType="-99"/>
          <Node pos="r" depth="2" NCoef="0" IVar="-1" Cut="0.0000000000000000e+00" cType="1" res="-2.6019357610493898e-03" rms="4.7207596898078918e-01" purity="3.4424442052841187e-01" nType="-99"/>
        </Node>
        <Node pos="r" depth="1" NCoef="0" IVar="72" Cut="3.3703703880310059e+00" cType="1" res="-2.5773170590400696e-01" rms="3.8171365857124329e-01" purity="1.8609684705734253e-01" nType="0">
          <Node pos="l" depth="2" NCoef="0" IVar="-1" Cut="0.0000000000000000e+00" cType="1" res="-2.3650871589779854e-03" rms="4.4444119930267334e-01" purity="2.8009125590324402e-01" nType="-99"/>
          <Node pos="r" depth="2" NCoef="0" IVar="-1" Cut="0.0000000000000000e+00" cType="1" res="-5.6547927670180798e-03" rms="3.2251107692718506e-01" purity="1.2244373559951782e-01" nType="-99"/>
        </Node>
      </Node>
    </BinaryTree>
    <BinaryTree type="DecisionTree" boostWeight="1.0000000000000000e+00" itree="29">
      <Node pos="s" depth="0" NCoef="0" IVar="41" Cut="5.0815458297729492e+00" cType="1" res="3.8711621891707182e-03" rms="4.8783776164054871e-01" purity="4.9941524863243103e-01" nType="0">
        <Node pos="l" depth="1" NCoef="0" IVar="39" Cut="2.5894635915756226e-01" cType="1" res="6.0563024133443832e-02" rms="4.9001088738441467e-01" purity="5.6808388233184814e-01" nType="0">
          <Node pos="l" depth="2" NCoef="0" IVar="-1" Cut="0.0000000000000000e+00" cType="1" res="1.4427803689613938e-03" rms="4.8147976398468018e-01" purity="6.2466996908187866e-01" nType="-99"/>
          <Node pos="r" depth="2" NCoef="0" IVar="-1" Cut="0.0000000000000000e+00" cType="1" res="-1.3518686173483729e-03" rms="4.8839086294174194e-01" purity="4.2869853973388672e-01" nType="-99"/>
        </Node>
        <Node pos="r" depth="1" NCoef="0" IVar="42" Cut="1.1716308593750000e+01" cType="1" res="-2.3912340402603149e-01" rms="3.9503848552703857e-01" purity="2.0508514344692230e-01" nType="0">
          <Node pos="l" depth="2" NCoef="0" IVar="-1" Cut="0.0000000000000000e+00" cType="1" res="-2.3963665589690208e-03" rms="4.5264092087745667e-01" purity="2.9745236039161682e-01" nType="-99"/>
          <Node pos="r" depth="2" NCoef="0" IVar="-1" Cut="0.0000000000000000e+00" cType="1" res="-5.9796757996082306e-03" rms="2.9837185144424438e-01" purity="1.0043836385011673e-01" nType="-99"/>
        </Node>
      </Node>
    </BinaryTree>
    <BinaryTree type="DecisionTree" boostWeight="1.0000000000000000e+00" itree="30">
      <Node pos="s" depth="0" NCoef="0" IVar="41" Cut="4.4971737861633301e+00" cType="1" res="2.4914778769016266e-03" rms="4.8766374588012695e-01" purity="4.9803322553634644e-01" nType="0">
        <Node pos="l" depth="1" NCoef="0" IVar="2" Cut="7.0382323265075684e+00" cType="1" res="6.1948914080858231e-02" rms="4.8983690142631531e-01" purity="5.7051944732666016e-01" nType="0">
          <Node pos="l" depth="2" NCoef="0" IVar="-1" Cut="0.0000000000000000e+00" cType="1" res="1.4440114609897137e-03" rms="4.8307004570960999e-01" purity="6.1763411760330200e-01" nType="-99"/>
          <Node pos="r" depth="2" NCoef="0" IVar="-1" Cut="0.0000000000000000e+00" cType="1" res="-1.6037113964557648e-03" rms="4.8534727096557617e-01" purity="3.9770478010177612e-01" nType="-99"/>
        </Node>
        <Node pos="r" depth="1" NCoef="0" IVar="41" Cut="9.1293611526489258e+00" cType="1" res="-2.2011880576610565e-01" rms="4.0874367952346802e-01" purity="2.2664299607276917e-01" nType="0">
          <Node pos="l" depth="2" NCoef="0" IVar="-1" Cut="0.0000000000000000e+00" cType="1" res="-2.4707082193344831e-03" rms="4.5411881804466248e-01" purity="3.0991905927658081e-01" nType="-99"/>
          <Node pos="r" depth="2" NCoef="0" IVar="-1" Cut="0.0000000000000000e+00" cType="1" res="-4.5121647417545319e-03" rms="3.2309773564338684e-01" purity="1.2266401946544647e-01" nType="-99"/>
        </Node>
      </Node>
    </BinaryTree>
    <BinaryTree type="DecisionTree" boostWeight="1.0000000000000000e+00" itree="31">
      <Node pos="s" depth="0" NCoef="0" IVar="41" Cut="5.0815458297729492e+00" cType="1" res="3.3926232717931271e-03" rms="4.8720210790634155e-01" purity="4.9889111518859863e-01" nType="0">
        <Node pos="l" depth="1" NCoef="0" IVar="43" Cut="9.5035858154296875e+00" cType="1" res="6.0286335647106171e-02" rms="4.8977521061897278e-01" purity="5.6862318515777588e-01" nType="0">
          <Node pos="l" depth="2" NCoef="0" IVar="-1" Cut="0.0000000000000000e+00" cType="1" res="1.3126219855621457e-03" rms="4.8560038208961487e-01" purity="6.0947626829147339e-01" nType="-99"/>
          <Node pos="r" depth="2" NCoef="0" IVar="-1" Cut="0.0000000000000000e+00" cType="1" res="-2.5432289112359285e-03" rms="4.7347468137741089e-01" purity="3.4808802604675293e-01" nType="-99"/>
        </Node>
        <Node pos="r" depth="1" NCoef="0" IVar="41" Cut="1.0429883956909180e+01" cType="1" res="-2.4006757140159607e-01" rms="3.9177072048187256e-01" purity="2.0049269497394562e-01" nType="0">
          <Node pos="l" depth="2" NCoef="0" IVar="-1" Cut="0.0000000000000000e+00" cType="1" res="-3.1374557875096798e-03" rms="4.3460193276405334e-01" purity="2.6641568541526794e-01" nType="-99"/>
          <Node pos="r" depth="2" NCoef="0" IVar="-1" Cut="0.0000000000000000e+00" cType="1" res="-4.3859127908945084e-03" rms="2.9889401793479919e-01" purity="1.0281930863857269e-01" nType="-99"/>
        </Node>
      </Node>
    </BinaryTree>
    <BinaryTree type="DecisionTree" boostWeight="1.0000000000000000e+00" itree="32">
      <Node pos="s" depth="0" NCoef="0" IVar="41" Cut="4.5296654701232910e+00" cType="1" res="4.3473881669342518e-03" rms="4.8687431216239929e-01" purity="4.9964767694473267e-01" nType="0">
        <Node pos="l" depth="1" NCoef="0" IVar="39" Cut="2.4963001906871796e-01" cType="1" res="6.5140858292579651e-02" rms="4.8904171586036682e-01" purity="5.7450187206268311e-01" nType="0">
          <Node pos="l" depth="2" NCoef="0" IVar="-1" Cut="0.0000000000000000e+00" cType="1" res="1.5364069258794188e-03" rms="4.7971302270889282e-01" purity="6.3200497627258301e-01" nType="-99"/>
          <Node pos="r" depth="2" NCoef="0" IVar="-1" Cut="0.0000000000000000e+00" cType="1" res="-1.0183070553466678e-03" rms="4.8933836817741394e-01" purity="4.3564426898956299e-01" nType="-99"/>
        </Node>
        <Node pos="r" depth="1" NCoef="0" IVar="42" Cut="1.1935309410095215e+01" cType="1" res="-2.2143211960792542e-01" rms="4.0557211637496948e-01" purity="2.2164824604988098e-01" nType="0">
          <Node pos="l" depth="2" NCoef="0" IVar="-1" Cut="0.0000000000000000e+00" cType="1" res="-2.0467333961278200e-03" rms="4.5717394351959229e-01" purity="3.0978164076805115e-01" nType="-99"/>
          <Node pos="r" depth="2" NCoef="0" IVar="-1" Cut="0.0000000000000000e+00" cType="1" res="-5.9178057126700878e-03" rms="3.0577588081359863e-01" purity="1.0662053525447845e-01" nType="-99"/>
        </Node>
      </Node>
    </BinaryTree>
    <BinaryTree type="DecisionTree" boostWeight="1.0000000000000000e+00" itree="33">
      <Node pos="s" depth="0" NCoef="0" IVar="43" Cut="4.5586385726928711e+00" cType="1" res="6.5721985884010792e-03" rms="4.8642417788505554e-01" purity="5.0185567140579224e-01" nType="0">
        <Node pos="l" depth="1" NCoef="0" IVar="5" Cut="1.0990424156188965e+01" cType="1" res="9.0501345694065094e-02" rms="4.8450824618339539e-01" purity="6.0666960477828979e-01" nType="0">
          <Node pos="l" depth="2" NCoef="0" IVar="-1" Cut="0.0000000000000000e+00" cType="1" res="1.5157541492953897e-03" rms="4.7788381576538086e-01" purity="6.4135038852691650e-01" nType="-99"/>
          <Node pos="r" depth="2" NCoef="0" IVar="-1" Cut="0.0000000000000000e+00" cType="1" res="-1.9352521048858762e-03" rms="4.8279774188995361e-01" purity="3.8382098078727722e-01" nType="-99"/>
        </Node>
        <Node pos="r" depth="1" NCoef="0" IVar="3" Cut="4.5644416809082031e+00" cType="1" res="-1.5036489069461823e-01" rms="4.4976222515106201e-01" purity="3.0586656928062439e-01" nType="0">
          <Node pos="l" depth="2" NCoef="0" IVar="-1" Cut="0.0000000000000000e+00" cType="1" res="-1.3672146014869213e-03" rms="4.7760960459709167e-01" purity="3.8009595870971680e-01" nType="-99"/>
          <Node pos="r" depth="2" NCoef="0" IVar="-1" Cut="0.0000000000000000e+00" cType="1" res="-7.4686347506940365e-03" rms="3.3766713738441467e-01" purity="1.3676959276199341e-01" nType="-99"/>
        </Node>
      </Node>
    </BinaryTree>
    <BinaryTree type="DecisionTree" boostWeight="1.0000000000000000e+00" itree="34">
      <Node pos="s" depth="0" NCoef="0" IVar="2" Cut="8.3490877151489258e+00" cType="1" res="5.9396261349320412e-03" rms="4.8610424995422363e-01" purity="5.0095027685165405e-01" nType="0">
        <Node pos="l" depth="1" NCoef="0" IVar="43" Cut="4.2517929077148438e+00" cType="1" res="7.3919668793678284e-02" rms="4.8596492409706116e-01" purity="5.8378881216049194e-01" nType="0">
          <Node pos="l" depth="2" NCoef="0" IVar="-1" Cut="0.0000000000000000e+00" cType="1" res="1.5235515311360359e-03" rms="4.7723016142845154e-01" purity="6.4522427320480347e-01" nType="-99"/>
          <Node pos="r" depth="2" NCoef="0" IVar="-1" Cut="0.0000000000000000e+00" cType="1" res="-1.1417848290875554e-03" rms="4.8551455140113831e-01" purity="4.1691505908966064e-01" nType="-99"/>
        </Node>
        <Node pos="r" depth="1" NCoef="0" IVar="3" Cut="5.7123188972473145e+00" cType="1" res="-1.7760309576988220e-01" rms="4.3646052479743958e-01" purity="2.7729046344757080e-01" nType="0">
          <Node pos="l" depth="2" NCoef="0" IVar="-1" Cut="0.0000000000000000e+00" cType="1" res="-1.5815801452845335e-03" rms="4.7168162465095520e-01" purity="3.5968053340911865e-01" nType="-99"/>
          <Node pos="r" depth="2" NCoef="0" IVar="-1" Cut="0.0000000000000000e+00" cType="1" res="-6.4879702404141426e-03" rms="3.5330304503440857e-01" purity="1.5360838174819946e-01" nType="-99"/>
        </Node>
      </Node>
    </BinaryTree>
    <BinaryTree type="DecisionTree" boostWeight="1.0000000000000000e+00" itree="35">
      <Node pos="s" depth="0" NCoef="0" IVar="41" Cut="3.2066421508789062e+00" cType="1" res="2.4302003439515829e-03" rms="4.8595145344734192e-01" purity="4.9733519554138184e-01" nType="0">
        <Node pos="l" depth="1" NCoef="0" IVar="11" Cut="2.4524740874767303e-02" cType="1" res="7.3284462094306946e-02" rms="4.8730838298797607e-01" purity="5.8457064628601074e-01" nType="0">
          <Node pos="l" depth="2" NCoef="0" IVar="-1" Cut="0.0000000000000000e+00" cType="1" res="1.8406365998089314e-03" rms="4.7861057519912720e-01" purity="6.3311982154846191e-01" nType="-99"/>
          <Node pos="r" depth="2" NCoef="0" IVar="-1" Cut="0.0000000000000000e+00" cType="1" res="-7.2473840555176139e-04" rms="4.9033683538436890e-01" purity="4.3675962090492249e-01" nType="-99"/>
        </Node>
        <Node pos="r" depth="1" NCoef="0" IVar="41" Cut="7.8865733146667480e+00" cType="1" res="-1.6760440170764923e-01" rms="4.3820092082023621e-01" purity="2.8798922896385193e-01" nType="0">
          <Node pos="l" depth="2" NCoef="0" IVar="-1" Cut="0.0000000000000000e+00" cType="1" res="-1.2364184949547052e-03" rms="4.7639819979667664e-01" purity="3.8345998525619507e-01" nType="-99"/>
          <Node pos="r" depth="2" NCoef="0" IVar="-1" Cut="0.0000000000000000e+00" cType="1" res="-4.3896711431443691e-03" rms="3.4092676639556885e-01" purity="1.4047059416770935e-01" nType="-99"/>
        </Node>
      </Node>
    </BinaryTree>
    <BinaryTree type="DecisionTree" boostWeight="1.0000000000000000e+00" itree="36">
      <Node pos="s" depth="0" NCoef="0" IVar="41" Cut="5.0710091590881348e+00" cType="1" res="4.7695818357169628e-03" rms="4.8557594418525696e-01" purity="4.9985647201538086e-01" nType="0">
        <Node pos="l" depth="1" NCoef="0" IVar="43" Cut="4.5586385726928711e+00" cType="1" res="5.8620966970920563e-02" rms="4.8890823125839233e-01" purity="5.6817281246185303e-01" nType="0">
          <Node pos="l" depth="2" NCoef="0" IVar="-1" Cut="0.0000000000000000e+00" cType="1" res="1.4742941129952669e-03" rms="4.8101484775543213e-01" purity="6.3000094890594482e-01" nType="-99"/>
          <Node pos="r" depth="2" NCoef="0" IVar="-1" Cut="0.0000000000000000e+00" cType="1" res="-1.1861698003485799e-03" rms="4.8581433296203613e-01" purity="4.0290063619613647e-01" nType="-99"/>
        </Node>
        <Node pos="r" depth="1" NCoef="0" IVar="43" Cut="1.2651560783386230e+01" cType="1" res="-2.2821323573589325e-01" rms="3.9358296990394592e-01" purity="2.0429229736328125e-01" nType="0">
          <Node pos="l" depth="2" NCoef="0" IVar="-1" Cut="0.0000000000000000e+00" cType="1" res="-2.3571485653519630e-03" rms="4.4871041178703308e-01" purity="2.9000443220138550e-01" nType="-99"/>
          <Node pos="r" depth="2" NCoef="0" IVar="-1" Cut="0.0000000000000000e+00" cType="1" res="-5.7308264076709747e-03" rms="2.9193255305290222e-01" purity="9.5885016024112701e-02" nType="-99"/>
        </Node>
      </Node>
    </BinaryTree>
    <BinaryTree type="DecisionTree" boostWeight="1.0000000000000000e+00" itree="37">
      <Node pos="s" depth="0" NCoef="0" IVar="43" Cut="8.7611398696899414e+00" cType="1" res="7.0379367098212242e-03" rms="4.8517340421676636e-01" purity="5.0180131196975708e-01" nType="0">
        <Node pos="l" depth="1" NCoef="0" IVar="5" Cut="8.6023645401000977e+00" cType="1" res="6.9261513650417328e-02" rms="4.8745232820510864e-01" purity="5.8219099044799805e-01" nType="0">
          <Node pos="l" depth="2" NCoef="0" IVar="-1" Cut="0.0000000000000000e+00" cType="1" res="1.3819618616253138e-03" rms="4.8077437281608582e-01" purity="6.2887102365493774e-01" nType="-99"/>
          <Node pos="r" depth="2" NCoef="0" IVar="-1" Cut="0.0000000000000000e+00" cType="1" res="-1.5631777932867408e-03" rms="4.8104703426361084e-01" purity="3.8543483614921570e-01" nType="-99"/>
        </Node>
        <Node pos="r" depth="1" NCoef="0" IVar="72" Cut="3.0370371341705322e+00" cType="1" res="-1.8968254327774048e-01" rms="4.2124339938163757e-01" purity="2.4764840304851532e-01" nType="0">
          <Node pos="l" depth="2" NCoef="0" IVar="-1" Cut="0.0000000000000000e+00" cType="1" res="-1.3410452520474792e-03" rms="4.7521761059761047e-01" purity="3.6666136980056763e-01" nType="-99"/>
          <Node pos="r" depth="2" NCoef="0" IVar="-1" Cut="0.0000000000000000e+00" cType="1" res="-7.5223031453788280e-03" rms="3.5366570949554443e-01" purity="1.5321990847587585e-01" nType="-99"/>
        </Node>
      </Node>
    </BinaryTree>
    <BinaryTree type="DecisionTree" boostWeight="1.0000000000000000e+00" itree="38">
      <Node pos="s" depth="0" NCoef="0" IVar="41" Cut="4.4906549453735352e+00" cType="1" res="6.4751743339002132e-03" rms="4.8481491208076477e-01" purity="5.0109207630157471e-01" nType="0">
        <Node pos="l" depth="1" NCoef="0" IVar="2" Cut="5.7664337158203125e+00" cType="1" res="6.5287142992019653e-02" rms="4.8785275220870972e-01" purity="5.7615894079208374e-01" nType="0">
          <Node pos="l" depth="2" NCoef="0" IVar="-1" Cut="0.0000000000000000e+00" cType="1" res="1.5654552262276411e-03" rms="4.7989079356193542e-01" purity="6.2867754697799683e-01" nType="-99"/>
          <Node pos="r" depth="2" NCoef="0" IVar="-1" Cut="0.0000000000000000e+00" cType="1" res="-8.7684701429679990e-04" rms="4.8875886201858521e-01" purity="4.2705270648002625e-01" nType="-99"/>
        </Node>
        <Node pos="r" depth="1" NCoef="0" IVar="72" Cut="3.3703703880310059e+00" cType="1" res="-2.1075953543186188e-01" rms="4.0517196059226990e-01" purity="2.2381661832332611e-01" nType="0">
          <Node pos="l" depth="2" NCoef="0" IVar="-1" Cut="0.0000000000000000e+00" cType="1" res="-1.6351331723853946e-03" rms="4.6316164731979370e-01" purity="3.3008828759193420e-01" nType="-99"/>
          <Node pos="r" depth="2" NCoef="0" IVar="-1" Cut="0.0000000000000000e+00" cType="1" res="-4.9830269999802113e-03" rms="3.4265252947807312e-01" purity="1.4445325732231140e-01" nType="-99"/>
        </Node>
      </Node>
    </BinaryTree>
    <BinaryTree type="DecisionTree" boostWeight="1.0000000000000000e+00" itree="39">
      <Node pos="s" depth="0" NCoef="0" IVar="41" Cut="4.4906549453735352e+00" cType="1" res="1.0513702407479286e-02" rms="4.8436182737350464e-01" purity="5.0510483980178833e-01" nType="0">
        <Node pos="l" depth="1" NCoef="0" IVar="43" Cut="9.2463073730468750e+00" cType="1" res="6.7552059888839722e-02" rms="4.8717141151428223e-01" purity="5.7886123657226562e-01" nType="0">
          <Node pos="l" depth="2" NCoef="0" IVar="-1" Cut="0.0000000000000000e+00" cType="1" res="1.3177272630855441e-03" rms="4.8242065310478210e-01" purity="6.2116563320159912e-01" nType="-99"/>
          <Node pos="r" depth="2" NCoef="0" IVar="-1" Cut="0.0000000000000000e+00" cType="1" res="-2.2383055184036493e-03" rms="4.7430837154388428e-01" purity="3.5271811485290527e-01" nType="-99"/>
        </Node>
        <Node pos="r" depth="1" NCoef="0" IVar="43" Cut="1.2780799865722656e+01" cType="1" res="-2.0095582306385040e-01" rms="4.0951818227767944e-01" purity="2.3165366053581238e-01" nType="0">
          <Node pos="l" depth="2" NCoef="0" IVar="-1" Cut="0.0000000000000000e+00" cType="1" res="-2.0042997784912586e-03" rms="4.6079620718955994e-01" purity="3.2329824566841125e-01" nType="-99"/>
          <Node pos="r" depth="2" NCoef="0" IVar="-1" Cut="0.0000000000000000e+00" cType="1" res="-5.7397196069359779e-03" rms="3.0022197961807251e-01" purity="1.0275253653526306e-01" nType="-99"/>
        </Node>
      </Node>
    </BinaryTree>
    <BinaryTree type="DecisionTree" boostWeight="1.0000000000000000e+00" itree="40">
      <Node pos="s" depth="0" NCoef="0" IVar="41" Cut="4.5296654701232910e+00" cType="1" res="3.8725584745407104e-03" rms="4.8415946960449219e-01" purity="4.9831384420394897e-01" nType="0">
        <Node pos="l" depth="1" NCoef="0" IVar="43" Cut="4.5586385726928711e+00" cType="1" res="6.2152534723281860e-02" rms="4.8798277974128723e-01" purity="5.7393312454223633e-01" nType="0">
          <Node pos="l" depth="2" NCoef="0" IVar="-1" Cut="0.0000000000000000e+00" cType="1" res="1.4878230867907405e-03" rms="4.8014825582504272e-01" purity="6.3310533761978149e-01" nType="-99"/>
          <Node pos="r" depth="2" NCoef="0" IVar="-1" Cut="0.0000000000000000e+00" cType="1" res="-1.0335013503208756e-03" rms="4.8727607727050781e-01" purity="4.1042822599411011e-01" nType="-99"/>
        </Node>
        <Node pos="r" depth="1" NCoef="0" IVar="42" Cut="1.1716308593750000e+01" cType="1" res="-2.1157772839069366e-01" rms="4.0211293101310730e-01" purity="2.1876347064971924e-01" nType="0">
          <Node pos="l" depth="2" NCoef="0" IVar="-1" Cut="0.0000000000000000e+00" cType="1" res="-1.9224508432671428e-03" rms="4.5683866739273071e-01" purity="3.0987474322319031e-01" nType="-99"/>
          <Node pos="r" depth="2" NCoef="0" IVar="-1" Cut="0.0000000000000000e+00" cType="1" res="-5.6511894799768925e-03" rms="3.0234438180923462e-01" purity="1.0438624769449234e-01" nType="-99"/>
        </Node>
      </Node>
    </BinaryTree>
    <BinaryTree type="DecisionTree" boostWeight="1.0000000000000000e+00" itree="41">
      <Node pos="s" depth="0" NCoef="0" IVar="41" Cut="4.4906549453735352e+00" cType="1" res="7.2914031334221363e-03" rms="4.8381507396697998e-01" purity="5.0182843208312988e-01" nType="0">
        <Node pos="l" depth="1" NCoef="0" IVar="43" Cut="4.2517929077148438e+00" cType="1" res="6.3710361719131470e-02" rms="4.8740440607070923e-01" purity="5.7599067687988281e-01" nType="0">
          <Node pos="l" depth="2" NCoef="0" IVar="-1" Cut="0.0000000000000000e+00" cType="1" res="1.4788371045142412e-03" rms="4.7887843847274780e-01" purity="6.3754981756210327e-01" nType="-99"/>
          <Node pos="r" depth="2" NCoef="0" IVar="-1" Cut="0.0000000000000000e+00" cType="1" res="-9.3457184266299009e-04" rms="4.8781612515449524e-01" purity="4.1627460718154907e-01" nType="-99"/>
        </Node>
        <Node pos="r" depth="1" NCoef="0" IVar="41" Cut="8.0707912445068359e+00" cType="1" res="-1.9987435638904572e-01" rms="4.0825355052947998e-01" purity="2.2951103746891022e-01" nType="0">
          <Node pos="l" depth="2" NCoef="0" IVar="-1" Cut="0.0000000000000000e+00" cType="1" res="-2.0096420776098967e-03" rms="4.5975407958030701e-01" purity="3.2769531011581421e-01" nType="-99"/>
          <Node pos="r" depth="2" NCoef="0" IVar="-1" Cut="0.0000000000000000e+00" cType="1" res="-4.2268163524568081e-03" rms="3.4065702557563782e-01" purity="1.4102303981781006e-01" nType="-99"/>
        </Node>
      </Node>
    </BinaryTree>
    <BinaryTree type="DecisionTree" boostWeight="1.0000000000000000e+00" itree="42">
      <Node pos="s" depth="0" NCoef="0" IVar="41" Cut="4.3020496368408203e+00" cType="1" res="7.8012119047343731e-03" rms="4.8351413011550903e-01" purity="5.0207060575485229e-01" nType="0">
        <Node pos="l" depth="1" NCoef="0" IVar="42" Cut="7.3831110000610352e+00" cType="1" res="6.6295906901359558e-02" rms="4.8712056875228882e-01" purity="5.7909208536148071e-01" nType="0">
          <Node pos="l" depth="2" NCoef="0" IVar="-1" Cut="0.0000000000000000e+00" cType="1" res="1.4115941012278199e-03" rms="4.8152014613151550e-01" purity="6.2622976303100586e-01" nType="-99"/>
          <Node pos="r" depth="2" NCoef="0" IVar="-1" Cut="0.0000000000000000e+00" cType="1" res="-1.5802534762769938e-03" rms="4.7984182834625244e-01" purity="3.7253308296203613e-01" nType="-99"/>
        </Node>
        <Node pos="r" depth="1" NCoef="0" IVar="41" Cut="8.9300851821899414e+00" cType="1" res="-1.9399106502532959e-01" rms="4.1132229566574097e-01" purity="2.3636534810066223e-01" nType="0">
          <Node pos="l" depth="2" NCoef="0" IVar="-1" Cut="0.0000000000000000e+00" cType="1" res="-2.1351820323616266e-03" rms="4.5792421698570251e-01" purity="3.2644385099411011e-01" nType="-99"/>
          <Node pos="r" depth="2" NCoef="0" IVar="-1" Cut="0.0000000000000000e+00" cType="1" res="-4.1847969405353069e-03" rms="3.2021430134773254e-01" purity="1.2116973102092743e-01" nType="-99"/>
        </Node>
      </Node>
    </BinaryTree>
    <BinaryTree type="DecisionTree" boostWeight="1.0000000000000000e+00" itree="43">
      <Node pos="s" depth="0" NCoef="0" IVar="41" Cut="3.4654111862182617e+00" cType="1" res="6.9924951530992985e-03" rms="4.8328492045402527e-01" purity="5.0155133008956909e-01" nType="0">
        <Node pos="l" depth="1" NCoef="0" IVar="5" Cut="1.1404103279113770e+01" cType="1" res="7.2761707007884979e-02" rms="4.8593509197235107e-01" purity="5.8698087930679321e-01" nType="0">
          <Node pos="l" depth="2" NCoef="0" IVar="-1" Cut="0.0000000000000000e+00" cType="1" res="1.3789131771773100e-03" rms="4.8082143068313599e-01" purity="6.2144821882247925e-01" nType="-99"/>
          <Node pos="r" depth="2" NCoef="0" IVar="-1" Cut="0.0000000000000000e+00" cType="1" res="-3.0389295425266027e-03" rms="4.7625508904457092e-01" purity="3.6158952116966248e-01" nType="-99"/>
        </Node>
        <Node pos="r" depth="1" NCoef="0" IVar="41" Cut="7.0708718299865723e+00" cType="1" res="-1.6896642744541168e-01" rms="4.2913633584976196e-01" purity="2.7299323678016663e-01" nType="0">
          <Node pos="l" depth="2" NCoef="0" IVar="-1" Cut="0.0000000000000000e+00" cType="1" res="-1.1083431309089065e-03" rms="4.7619721293449402e-01" purity="3.8639271259307861e-01" nType="-99"/>
          <Node pos="r" depth="2" NCoef="0" IVar="-1" Cut="0.0000000000000000e+00" cType="1" res="-4.2220694012939930e-03" rms="3.5156038403511047e-01" purity="1.5251649916172028e-01" nType="-99"/>
        </Node>
      </Node>
    </BinaryTree>
    <BinaryTree type="DecisionTree" boostWeight="1.0000000000000000e+00" itree="44">
      <Node pos="s" depth="0" NCoef="0" IVar="5" Cut="1.0709016799926758e+01" cType="1" res="4.7980942763388157e-03" rms="4.8336383700370789e-01" purity="4.9932396411895752e-01" nType="0">
        <Node pos="l" depth="1" NCoef="0" IVar="41" Cut="4.8341593742370605e+00" cType="1" res="6.2611922621726990e-02" rms="4.8541262745857239e-01" purity="5.7326155900955200e-01" nType="0">
          <Node pos="l" depth="2" NCoef="0" IVar="-1" Cut="0.0000000000000000e+00" cType="1" res="1.2173285940662026e-03" rms="4.8359236121177673e-01" purity="6.0833597183227539e-01" nType="-99"/>
          <Node pos="r" depth="2" NCoef="0" IVar="-1" Cut="0.0000000000000000e+00" cType="1" res="-2.2728741168975830e-03" rms="4.4742193818092346e-01" purity="2.9647928476333618e-01" nType="-99"/>
        </Node>
        <Node pos="r" depth="1" NCoef="0" IVar="6" Cut="6.0779094696044922e+00" cType="1" res="-1.8206074833869934e-01" rms="4.2603543400764465e-01" purity="2.6035201549530029e-01" nType="0">
          <Node pos="l" depth="2" NCoef="0" IVar="-1" Cut="0.0000000000000000e+00" cType="1" res="-1.8901476869359612e-03" rms="4.6700623631477356e-01" purity="3.4622514247894287e-01" nType="-99"/>
          <Node pos="r" depth="2" NCoef="0" IVar="-1" Cut="0.0000000000000000e+00" cType="1" res="-7.6325382106006145e-03" rms="3.4007290005683899e-01" purity="1.4046435058116913e-01" nType="-99"/>
        </Node>
      </Node>
    </BinaryTree>
    <BinaryTree type="DecisionTree" boostWeight="1.0000000000000000e+00" itree="45">
      <Node pos="s" depth="0" NCoef="0" IVar="41" Cut="5.8036265373229980e+00" cType="1" res="5.6811873801052570e-03" rms="4.8278847336769104e-01" purity="5.0007277727127075e-01" nType="0">
        <Node pos="l" depth="1" NCoef="0" IVar="39" Cut="2.0649097859859467e-01" cType="1" res="5.2673839032649994e-02" rms="4.8785901069641113e-01" purity="5.6315177679061890e-01" nType="0">
          <Node pos="l" depth="2" NCoef="0" IVar="-1" Cut="0.0000000000000000e+00" cType="1" res="1.4291093684732914e-03" rms="4.7957807779312134e-01" purity="6.2801390886306763e-01" nType="-99"/>
          <Node pos="r" depth="2" NCoef="0" IVar="-1" Cut="0.0000000000000000e+00" cType="1" res="-9.6347898943349719e-04" rms="4.8577922582626343e-01" purity="4.3161690235137939e-01" nType="-99"/>
        </Node>
        <Node pos="r" depth="1" NCoef="0" IVar="72" Cut="3.3703703880310059e+00" cType="1" res="-2.3432640731334686e-01" rms="3.7291502952575684e-01" purity="1.7790663242340088e-01" nType="0">
          <Node pos="l" depth="2" NCoef="0" IVar="-1" Cut="0.0000000000000000e+00" cType="1" res="-2.0867499988526106e-03" rms="4.4086727499961853e-01" purity="2.7550005912780762e-01" nType="-99"/>
          <Node pos="r" depth="2" NCoef="0" IVar="-1" Cut="0.0000000000000000e+00" cType="1" res="-5.4165688343346119e-03" rms="3.1013903021812439e-01" purity="1.1276099085807800e-01" nType="-99"/>
        </Node>
      </Node>
    </BinaryTree>
    <BinaryTree type="DecisionTree" boostWeight="1.0000000000000000e+00" itree="46">
      <Node pos="s" depth="0" NCoef="0" IVar="2" Cut="6.8479657173156738e+00" cType="1" res="6.9385338574647903e-03" rms="4.8259335756301880e-01" purity="5.0118172168731689e-01" nType="0">
        <Node pos="l" depth="1" NCoef="0" IVar="43" Cut="4.5586385726928711e+00" cType="1" res="7.7352598309516907e-02" rms="4.8358657956123352e-01" purity="5.9340494871139526e-01" nType="0">
          <Node pos="l" depth="2" NCoef="0" IVar="-1" Cut="0.0000000000000000e+00" cType="1" res="1.4653746038675308e-03" rms="4.7642746567726135e-01" purity="6.4656043052673340e-01" nType="-99"/>
          <Node pos="r" depth="2" NCoef="0" IVar="-1" Cut="0.0000000000000000e+00" cType="1" res="-9.3410286353901029e-04" rms="4.8573535680770874e-01" purity="4.2362704873085022e-01" nType="-99"/>
        </Node>
        <Node pos="r" depth="1" NCoef="0" IVar="41" Cut="8.2596120834350586e+00" cType="1" res="-1.4559561014175415e-01" rms="4.4363313913345337e-01" purity="3.0140361189842224e-01" nType="0">
          <Node pos="l" depth="2" NCoef="0" IVar="-1" Cut="0.0000000000000000e+00" cType="1" res="-1.9233373459428549e-03" rms="4.7522622346878052e-01" purity="3.7469193339347839e-01" nType="-99"/>
          <Node pos="r" depth="2" NCoef="0" IVar="-1" Cut="0.0000000000000000e+00" cType="1" res="-3.9523518644273281e-03" rms="3.1252890825271606e-01" purity="1.1413715034723282e-01" nType="-99"/>
        </Node>
      </Node>
    </BinaryTree>
    <BinaryTree type="DecisionTree" boostWeight="1.0000000000000000e+00" itree="47">
      <Node pos="s" depth="0" NCoef="0" IVar="5" Cut="9.9436445236206055e+00" cType="1" res="4.8747588880360126e-03" rms="4.8242217302322388e-01" purity="4.9919712543487549e-01" nType="0">
        <Node pos="l" depth="1" NCoef="0" IVar="43" Cut="4.2517929077148438e+00" cType="1" res="6.5194286406040192e-02" rms="4.8470735549926758e-01" purity="5.7789528369903564e-01" nType="0">
          <Node pos="l" depth="2" NCoef="0" IVar="-1" Cut="0.0000000000000000e+00" cType="1" res="1.4345762319862843e-03" rms="4.7789779305458069e-01" purity="6.4059561491012573e-01" nType="-99"/>
          <Node pos="r" depth="2" NCoef="0" IVar="-1" Cut="0.0000000000000000e+00" cType="1" res="-1.0439364705234766e-03" rms="4.8187068104743958e-01" purity="4.1063410043716431e-01" nType="-99"/>
        </Node>
        <Node pos="r" depth="1" NCoef="0" IVar="6" Cut="8.5967760086059570e+00" cType="1" res="-1.7374095320701599e-01" rms="4.2837977409362793e-01" purity="2.6615929603576660e-01" nType="0">
          <Node pos="l" depth="2" NCoef="0" IVar="-1" Cut="0.0000000000000000e+00" cType="1" res="-1.7497271765023470e-03" rms="4.6048825979232788e-01" purity="3.3143007755279541e-01" nType="-99"/>
          <Node pos="r" depth="2" NCoef="0" IVar="-1" Cut="0.0000000000000000e+00" cType="1" res="-1.0517147369682789e-02" rms="3.1938007473945618e-01" purity="1.2081278115510941e-01" nType="-99"/>
        </Node>
      </Node>
    </BinaryTree>
    <BinaryTree type="DecisionTree" boostWeight="1.0000000000000000e+00" itree="48">
      <Node pos="s" depth="0" NCoef="0" IVar="41" Cut="5.5614037513732910e+00" cType="1" res="4.2964071035385132e-03" rms="4.8206955194473267e-01" purity="4.9836879968643188e-01" nType="0">
        <Node pos="l" depth="1" NCoef="0" IVar="39" Cut="2.4963001906871796e-01" cType="1" res="5.1334545016288757e-02" rms="4.8779520392417908e-01" purity="5.6301116943359375e-01" nType="0">
          <Node pos="l" depth="2" NCoef="0" IVar="-1" Cut="0.0000000000000000e+00" cType="1" res="1.3672475470229983e-03" rms="4.8104581236839294e-01" purity="6.2080192565917969e-01" nType="-99"/>
          <Node pos="r" depth="2" NCoef="0" IVar="-1" Cut="0.0000000000000000e+00" cType="1" res="-1.1274137068539858e-03" rms="4.8500719666481018e-01" purity="4.2768430709838867e-01" nType="-99"/>
        </Node>
        <Node pos="r" depth="1" NCoef="0" IVar="72" Cut="4.1728396415710449e+00" cType="1" res="-2.2286604344844818e-01" rms="3.7853017449378967e-01" purity="1.8618977069854736e-01" nType="0">
          <Node pos="l" depth="2" NCoef="0" IVar="-1" Cut="0.0000000000000000e+00" cType="1" res="-2.5483833160251379e-03" rms="4.3165975809097290e-01" purity="2.6259309053421021e-01" nType="-99"/>
          <Node pos="r" depth="2" NCoef="0" IVar="-1" Cut="0.0000000000000000e+00" cType="1" res="-4.8328391276299953e-03" rms="2.9587861895561218e-01" purity="1.0195813328027725e-01" nType="-99"/>
        </Node>
      </Node>
    </BinaryTree>
    <BinaryTree type="DecisionTree" boostWeight="1.0000000000000000e+00" itree="49">
      <Node pos="s" depth="0" NCoef="0" IVar="43" Cut="8.6775999069213867e+00" cType="1" res="5.4547106847167015e-03" rms="4.8202466964721680e-01" purity="4.9949958920478821e-01" nType="0">
        <Node pos="l" depth="1" NCoef="0" IVar="2" Cut="1.0091288566589355e+01" cType="1" res="6.1306759715080261e-02" rms="4.8640447854995728e-01" purity="5.7747006416320801e-01" nType="0">
          <Node pos="l" depth="2" NCoef="0" IVar="-1" Cut="0.0000000000000000e+00" cType="1" res="1.2772663030773401e-03" rms="4.8278179764747620e-01" purity="6.1587631702423096e-01" nType="-99"/>
          <Node pos="r" depth="2" NCoef="0" IVar="-1" Cut="0.0000000000000000e+00" cType="1" res="-1.6430004034191370e-03" rms="4.7034472227096558e-01" purity="3.5203745961189270e-01" nType="-99"/>
        </Node>
        <Node pos="r" depth="1" NCoef="0" IVar="72" Cut="3.3333332538604736e+00" cType="1" res="-1.7330136895179749e-01" rms="4.2051750421524048e-01" purity="2.4995288252830505e-01" nType="0">
          <Node pos="l" depth="2" NCoef="0" IVar="-1" Cut="0.0000000000000000e+00" cType="1" res="-1.2058912543579936e-03" rms="4.7539997100830078e-01" purity="3.7118151783943176e-01" nType="-99"/>
          <Node pos="r" depth="2" NCoef="0" IVar="-1" Cut="0.0000000000000000e+00" cType="1" res="-7.0612197741866112e-03" rms="3.5375311970710754e-01" purity="1.5447299182415009e-01" nType="-99"/>
        </Node>
      </Node>
    </BinaryTree>
    <BinaryTree type="DecisionTree" boostWeight="1.0000000000000000e+00" itree="50">
      <Node pos="s" depth="0" NCoef="0" IVar="2" Cut="6.2030148506164551e+00" cType="1" res="2.1170394029468298e-03" rms="4.8148316144943237e-01" purity="4.9541315436363220e-01" nType="0">
        <Node pos="l" depth="1" NCoef="0" IVar="42" Cut="4.2630624771118164e+00" cType="1" res="7.5345873832702637e-02" rms="4.8344054818153381e-01" purity="5.9359908103942871e-01" nType="0">
          <Node pos="l" depth="2" NCoef="0" IVar="-1" Cut="0.0000000000000000e+00" cType="1" res="1.4620653819292784e-03" rms="4.7650277614593506e-01" purity="6.4697200059890747e-01" nType="-99"/>
          <Node pos="r" depth="2" NCoef="0" IVar="-1" Cut="0.0000000000000000e+00" cType="1" res="-8.5760123329237103e-04" rms="4.8627272248268127e-01" purity="4.3097546696662903e-01" nType="-99"/>
        </Node>
        <Node pos="r" depth="1" NCoef="0" IVar="6" Cut="5.1951432228088379e+00" cType="1" res="-1.3789543509483337e-01" rms="4.4537436962127686e-01" purity="3.0768311023712158e-01" nType="0">
          <Node pos="l" depth="2" NCoef="0" IVar="-1" Cut="0.0000000000000000e+00" cType="1" res="-9.0681307483464479e-04" rms="4.7812014818191528e-01" purity="3.9536935091018677e-01" nType="-99"/>
          <Node pos="r" depth="2" NCoef="0" IVar="-1" Cut="0.0000000000000000e+00" cType="1" res="-5.5448790080845356e-03" rms="3.7251397967338562e-01" purity="1.7936129868030548e-01" nType="-99"/>
        </Node>
      </Node>
    </BinaryTree>
    <BinaryTree type="DecisionTree" boostWeight="1.0000000000000000e+00" itree="51">
      <Node pos="s" depth="0" NCoef="0" IVar="2" Cut="6.5365529060363770e+00" cType="1" res="4.4644176959991455e-03" rms="4.8109990358352661e-01" purity="4.9804091453552246e-01" nType="0">
        <Node pos="l" depth="1" NCoef="0" IVar="42" Cut="7.0406756401062012e+00" cType="1" res="7.3680460453033447e-02" rms="4.8327374458312988e-01" purity="5.9193742275238037e-01" nType="0">
          <Node pos="l" depth="2" NCoef="0" IVar="-1" Cut="0.0000000000000000e+00" cType="1" res="1.4044699491932988e-03" rms="4.7916346788406372e-01" purity="6.3452768325805664e-01" nType="-99"/>
          <Node pos="r" depth="2" NCoef="0" IVar="-1" Cut="0.0000000000000000e+00" cType="1" res="-2.1895780228078365e-03" rms="4.7372987866401672e-01" purity="3.6984118819236755e-01" nType="-99"/>
        </Node>
        <Node pos="r" depth="1" NCoef="0" IVar="6" Cut="7.9019207954406738e+00" cType="1" res="-1.3750047981739044e-01" rms="4.4404622912406921e-01" purity="3.0545553565025330e-01" nType="0">
          <Node pos="l" depth="2" NCoef="0" IVar="-1" Cut="0.0000000000000000e+00" cType="1" res="-1.2310020392760634e-03" rms="4.7208464145660400e-01" purity="3.7539911270141602e-01" nType="-99"/>
          <Node pos="r" depth="2" NCoef="0" IVar="-1" Cut="0.0000000000000000e+00" cType="1" res="-6.0495664365589619e-03" rms="3.3256939053535461e-01" purity="1.3372272253036499e-01" nType="-99"/>
        </Node>
      </Node>
    </BinaryTree>
    <BinaryTree type="DecisionTree" boostWeight="1.0000000000000000e+00" itree="52">
      <Node pos="s" depth="0" NCoef="0" IVar="2" Cut="7.0382323265075684e+00" cType="1" res="5.5487840436398983e-03" rms="4.8077818751335144e-01" purity="4.9902597069740295e-01" nType="0">
        <Node pos="l" depth="1" NCoef="0" IVar="43" Cut="9.5035858154296875e+00" cType="1" res="7.3135480284690857e-02" rms="4.8314899206161499e-01" purity="5.9087777137756348e-01" nType="0">
          <Node pos="l" depth="2" NCoef="0" IVar="-1" Cut="0.0000000000000000e+00" cType="1" res="1.3134886976331472e-03" rms="4.8055660724639893e-01" purity="6.2650674581527710e-01" nType="-99"/>
          <Node pos="r" depth="2" NCoef="0" IVar="-1" Cut="0.0000000000000000e+00" cType="1" res="-1.8170003313571215e-03" rms="4.6586331725120544e-01" purity="3.4415820240974426e-01" nType="-99"/>
        </Node>
        <Node pos="r" depth="1" NCoef="0" IVar="3" Cut="5.6846556663513184e+00" cType="1" res="-1.4573979377746582e-01" rms="4.3922531604766846e-01" purity="2.9342162609100342e-01" nType="0">
          <Node pos="l" depth="2" NCoef="0" IVar="-1" Cut="0.0000000000000000e+00" cType="1" res="-1.2851691571995616e-03" rms="4.7258543968200684e-01" purity="3.7363269925117493e-01" nType="-99"/>
          <Node pos="r" depth="2" NCoef="0" IVar="-1" Cut="0.0000000000000000e+00" cType="1" res="-5.8296862989664078e-03" rms="3.5361483693122864e-01" purity="1.5727137029170990e-01" nType="-99"/>
        </Node>
      </Node>
    </BinaryTree>
    <BinaryTree type="DecisionTree" boostWeight="1.0000000000000000e+00" itree="53">
      <Node pos="s" depth="0" NCoef="0" IVar="43" Cut="8.4774436950683594e+00" cType="1" res="8.6033092811703682e-03" rms="4.8040041327476501e-01" purity="5.0181317329406738e-01" nType="0">
        <Node pos="l" depth="1" NCoef="0" IVar="3" Cut="3.2140514850616455e+00" cType="1" res="6.5779745578765869e-02" rms="4.8489370942115784e-01" purity="5.8315932750701904e-01" nType="0">
          <Node pos="l" depth="2" NCoef="0" IVar="-1" Cut="0.0000000000000000e+00" cType="1" res="1.2775143841281533e-03" rms="4.8123943805694580e-01" purity="6.1905664205551147e-01" nType="-99"/>
          <Node pos="r" depth="2" NCoef="0" IVar="-1" Cut="0.0000000000000000e+00" cType="1" res="-1.5610632253810763e-03" rms="4.6728479862213135e-01" purity="3.4842118620872498e-01" nType="-99"/>
        </Node>
        <Node pos="r" depth="1" NCoef="0" IVar="72" Cut="3.3703703880310059e+00" cType="1" res="-1.6858479380607605e-01" rms="4.1930484771728516e-01" purity="2.4972383677959442e-01" nType="0">
          <Node pos="l" depth="2" NCoef="0" IVar="-1" Cut="0.0000000000000000e+00" cType="1" res="-9.1885199071839452e-04" rms="4.7347828745841980e-01" purity="3.6690276861190796e-01" nType="-99"/>
          <Node pos="r" depth="2" NCoef="0" IVar="-1" Cut="0.0000000000000000e+00" cType="1" res="-6.8706120364367962e-03" rms="3.5337877273559570e-01" purity="1.5516266226768494e-01" nType="-99"/>
